{"learner":{"attributes":{"best_iteration":"1421","best_score":"0.9094026063749346"},"feature_names":["DER_mass_MMC","DER_mass_transverse_met_lep","DER_mass_vis","DER_pt_h","DER_deltaeta_jet_jet","DER_mass_jet_jet","DER_prodeta_jet_jet","DER_deltar_tau_lep","DER_pt_tot","DER_sum_pt","DER_pt_ratio_lep_tau","DER_met_phi_centrality","DER_lep_eta_centrality","PRI_tau_pt","PRI_tau_eta","PRI_tau_phi","PRI_lep_pt","PRI_lep_eta","PRI_lep_phi","PRI_met","PRI_met_phi","PRI_met_sumet","PRI_jet_num","PRI_jet_leading_pt","PRI_jet_leading_eta","PRI_jet_leading_phi","PRI_jet_subleading_pt","PRI_jet_subleading_eta","PRI_jet_subleading_phi","PRI_jet_all_pt"],"feature_types":["float","float","float","float","float","float","float","float","float","float","float","float","float","float","float","float","float","float","float","float","float","float","int","float","float","float","float","float","float","float"],"gradient_booster":{"model":{"gbtree_model_param":{"num_parallel_tree":"1","num_trees":"1472"},"iteration_indptr":[0,1,2,3,4,5,6,7,8,9,10,11,12,13,14,15,16,17,18,19,20,21,22,23,24,25,26,27,28,29,30,31,32,33,34,35,36,37,38,39,40,41,42,43,44,45,46,47,48,49,50,51,52,53,54,55,56,57,58,59,60,61,62,63,64,65,66,67,68,69,70,71,72,73,74,75,76,77,78,79,80,81,82,83,84,85,86,87,88,89,90,91,92,93,94,95,96,97,98,99,100,101,102,103,104,105,106,107,108,109,110,111,112,113,114,115,116,117,118,119,120,121,122,123,124,125,126,127,128,129,130,131,132,133,134,135,136,137,138,139,140,141,142,143,144,145,146,147,148,149,150,151,152,153,154,155,156,157,158,159,160,161,162,163,164,165,166,167,168,169,170,171,172,173,174,175,176,177,178,179,180,181,182,183,184,185,186,187,188,189,190,191,192,193,194,195,196,197,198,199,200,201,202,203,204,205,206,207,208,209,210,211,212,213,214,215,216,217,218,219,220,221,222,223,224,225,226,227,228,229,230,231,232,233,234,235,236,237,238,239,240,241,242,243,244,245,246,247,248,249,250,251,252,253,254,255,256,257,258,259,260,261,262,263,264,265,266,267,268,269,270,271,272,273,274,275,276,277,278,279,280,281,282,283,284,285,286,287,288,289,290,291,292,293,294,295,296,297,298,299,300,301,302,303,304,305,306,307,308,309,310,311,312,313,314,315,316,317,318,319,320,321,322,323,324,325,326,327,328,329,330,331,332,333,334,335,336,337,338,339,340,341,342,343,344,345,346,347,348,349,350,351,352,353,354,355,356,357,358,359,360,361,362,363,364,365,366,367,368,369,370,371,372,373,374,375,376,377,378,379,380,381,382,383,384,385,386,387,388,389,390,391,392,393,394,395,396,397,398,399,400,401,402,403,404,405,406,407,408,409,410,411,412,413,414,415,416,417,418,419,420,421,422,423,424,425,426,427,428,429,430,431,432,433,434,435,436,437,438,439,440,441,442,443,444,445,446,447,448,449,450,451,452,453,454,455,456,457,458,459,460,461,462,463,464,465,466,467,468,469,470,471,472,473,474,475,476,477,478,479,480,481,482,483,484,485,486,487,488,489,490,491,492,493,494,495,496,497,498,499,500,501,502,503,504,505,506,507,508,509,510,511,512,513,514,515,516,517,518,519,520,521,522,523,524,525,526,527,528,529,530,531,532,533,534,535,536,537,538,539,540,541,542,543,544,545,546,547,548,549,550,551,552,553,554,555,556,557,558,559,560,561,562,563,564,565,566,567,568,569,570,571,572,573,574,575,576,577,578,579,580,581,582,583,584,585,586,587,588,589,590,591,592,593,594,595,596,597,598,599,600,601,602,603,604,605,606,607,608,609,610,611,612,613,614,615,616,617,618,619,620,621,622,623,624,625,626,627,628,629,630,631,632,633,634,635,636,637,638,639,640,641,642,643,644,645,646,647,648,649,650,651,652,653,654,655,656,657,658,659,660,661,662,663,664,665,666,667,668,669,670,671,672,673,674,675,676,677,678,679,680,681,682,683,684,685,686,687,688,689,690,691,692,693,694,695,696,697,698,699,700,701,702,703,704,705,706,707,708,709,710,711,712,713,714,715,716,717,718,719,720,721,722,723,724,725,726,727,728,729,730,731,732,733,734,735,736,737,738,739,740,741,742,743,744,745,746,747,748,749,750,751,752,753,754,755,756,757,758,759,760,761,762,763,764,765,766,767,768,769,770,771,772,773,774,775,776,777,778,779,780,781,782,783,784,785,786,787,788,789,790,791,792,793,794,795,796,797,798,799,800,801,802,803,804,805,806,807,808,809,810,811,812,813,814,815,816,817,818,819,820,821,822,823,824,825,826,827,828,829,830,831,832,833,834,835,836,837,838,839,840,841,842,843,844,845,846,847,848,849,850,851,852,853,854,855,856,857,858,859,860,861,862,863,864,865,866,867,868,869,870,871,872,873,874,875,876,877,878,879,880,881,882,883,884,885,886,887,888,889,890,891,892,893,894,895,896,897,898,899,900,901,902,903,904,905,906,907,908,909,910,911,912,913,914,915,916,917,918,919,920,921,922,923,924,925,926,927,928,929,930,931,932,933,934,935,936,937,938,939,940,941,942,943,944,945,946,947,948,949,950,951,952,953,954,955,956,957,958,959,960,961,962,963,964,965,966,967,968,969,970,971,972,973,974,975,976,977,978,979,980,981,982,983,984,985,986,987,988,989,990,991,992,993,994,995,996,997,998,999,1000,1001,1002,1003,1004,1005,1006,1007,1008,1009,1010,1011,1012,1013,1014,1015,1016,1017,1018,1019,1020,1021,1022,1023,1024,1025,1026,1027,1028,1029,1030,1031,1032,1033,1034,1035,1036,1037,1038,1039,1040,1041,1042,1043,1044,1045,1046,1047,1048,1049,1050,1051,1052,1053,1054,1055,1056,1057,1058,1059,1060,1061,1062,1063,1064,1065,1066,1067,1068,1069,1070,1071,1072,1073,1074,1075,1076,1077,1078,1079,1080,1081,1082,1083,1084,1085,1086,1087,1088,1089,1090,1091,1092,1093,1094,1095,1096,1097,1098,1099,1100,1101,1102,1103,1104,1105,1106,1107,1108,1109,1110,1111,1112,1113,1114,1115,1116,1117,1118,1119,1120,1121,1122,1123,1124,1125,1126,1127,1128,1129,1130,1131,1132,1133,1134,1135,1136,1137,1138,1139,1140,1141,1142,1143,1144,1145,1146,1147,1148,1149,1150,1151,1152,1153,1154,1155,1156,1157,1158,1159,1160,1161,1162,1163,1164,1165,1166,1167,1168,1169,1170,1171,1172,1173,1174,1175,1176,1177,1178,1179,1180,1181,1182,1183,1184,1185,1186,1187,1188,1189,1190,1191,1192,1193,1194,1195,1196,1197,1198,1199,1200,1201,1202,1203,1204,1205,1206,1207,1208,1209,1210,1211,1212,1213,1214,1215,1216,1217,1218,1219,1220,1221,1222,1223,1224,1225,1226,1227,1228,1229,1230,1231,1232,1233,1234,1235,1236,1237,1238,1239,1240,1241,1242,1243,1244,1245,1246,1247,1248,1249,1250,1251,1252,1253,1254,1255,1256,1257,1258,1259,1260,1261,1262,1263,1264,1265,1266,1267,1268,1269,1270,1271,1272,1273,1274,1275,1276,1277,1278,1279,1280,1281,1282,1283,1284,1285,1286,1287,1288,1289,1290,1291,1292,1293,1294,1295,1296,1297,1298,1299,1300,1301,1302,1303,1304,1305,1306,1307,1308,1309,1310,1311,1312,1313,1314,1315,1316,1317,1318,1319,1320,1321,1322,1323,1324,1325,1326,1327,1328,1329,1330,1331,1332,1333,1334,1335,1336,1337,1338,1339,1340,1341,1342,1343,1344,1345,1346,1347,1348,1349,1350,1351,1352,1353,1354,1355,1356,1357,1358,1359,1360,1361,1362,1363,1364,1365,1366,1367,1368,1369,1370,1371,1372,1373,1374,1375,1376,1377,1378,1379,1380,1381,1382,1383,1384,1385,1386,1387,1388,1389,1390,1391,1392,1393,1394,1395,1396,1397,1398,1399,1400,1401,1402,1403,1404,1405,1406,1407,1408,1409,1410,1411,1412,1413,1414,1415,1416,1417,1418,1419,1420,1421,1422,1423,1424,1425,1426,1427,1428,1429,1430,1431,1432,1433,1434,1435,1436,1437,1438,1439,1440,1441,1442,1443,1444,1445,1446,1447,1448,1449,1450,1451,1452,1453,1454,1455,1456,1457,1458,1459,1460,1461,1462,1463,1464,1465,1466,1467,1468,1469,1470,1471,1472],"tree_info":[0,0,0,0,0,0,0,0,0,0,0,0,0,0,0,0,0,0,0,0,0,0,0,0,0,0,0,0,0,0,0,0,0,0,0,0,0,0,0,0,0,0,0,0,0,0,0,0,0,0,0,0,0,0,0,0,0,0,0,0,0,0,0,0,0,0,0,0,0,0,0,0,0,0,0,0,0,0,0,0,0,0,0,0,0,0,0,0,0,0,0,0,0,0,0,0,0,0,0,0,0,0,0,0,0,0,0,0,0,0,0,0,0,0,0,0,0,0,0,0,0,0,0,0,0,0,0,0,0,0,0,0,0,0,0,0,0,0,0,0,0,0,0,0,0,0,0,0,0,0,0,0,0,0,0,0,0,0,0,0,0,0,0,0,0,0,0,0,0,0,0,0,0,0,0,0,0,0,0,0,0,0,0,0,0,0,0,0,0,0,0,0,0,0,0,0,0,0,0,0,0,0,0,0,0,0,0,0,0,0,0,0,0,0,0,0,0,0,0,0,0,0,0,0,0,0,0,0,0,0,0,0,0,0,0,0,0,0,0,0,0,0,0,0,0,0,0,0,0,0,0,0,0,0,0,0,0,0,0,0,0,0,0,0,0,0,0,0,0,0,0,0,0,0,0,0,0,0,0,0,0,0,0,0,0,0,0,0,0,0,0,0,0,0,0,0,0,0,0,0,0,0,0,0,0,0,0,0,0,0,0,0,0,0,0,0,0,0,0,0,0,0,0,0,0,0,0,0,0,0,0,0,0,0,0,0,0,0,0,0,0,0,0,0,0,0,0,0,0,0,0,0,0,0,0,0,0,0,0,0,0,0,0,0,0,0,0,0,0,0,0,0,0,0,0,0,0,0,0,0,0,0,0,0,0,0,0,0,0,0,0,0,0,0,0,0,0,0,0,0,0,0,0,0,0,0,0,0,0,0,0,0,0,0,0,0,0,0,0,0,0,0,0,0,0,0,0,0,0,0,0,0,0,0,0,0,0,0,0,0,0,0,0,0,0,0,0,0,0,0,0,0,0,0,0,0,0,0,0,0,0,0,0,0,0,0,0,0,0,0,0,0,0,0,0,0,0,0,0,0,0,0,0,0,0,0,0,0,0,0,0,0,0,0,0,0,0,0,0,0,0,0,0,0,0,0,0,0,0,0,0,0,0,0,0,0,0,0,0,0,0,0,0,0,0,0,0,0,0,0,0,0,0,0,0,0,0,0,0,0,0,0,0,0,0,0,0,0,0,0,0,0,0,0,0,0,0,0,0,0,0,0,0,0,0,0,0,0,0,0,0,0,0,0,0,0,0,0,0,0,0,0,0,0,0,0,0,0,0,0,0,0,0,0,0,0,0,0,0,0,0,0,0,0,0,0,0,0,0,0,0,0,0,0,0,0,0,0,0,0,0,0,0,0,0,0,0,0,0,0,0,0,0,0,0,0,0,0,0,0,0,0,0,0,0,0,0,0,0,0,0,0,0,0,0,0,0,0,0,0,0,0,0,0,0,0,0,0,0,0,0,0,0,0,0,0,0,0,0,0,0,0,0,0,0,0,0,0,0,0,0,0,0,0,0,0,0,0,0,0,0,0,0,0,0,0,0,0,0,0,0,0,0,0,0,0,0,0,0,0,0,0,0,0,0,0,0,0,0,0,0,0,0,0,0,0,0,0,0,0,0,0,0,0,0,0,0,0,0,0,0,0,0,0,0,0,0,0,0,0,0,0,0,0,0,0,0,0,0,0,0,0,0,0,0,0,0,0,0,0,0,0,0,0,0,0,0,0,0,0,0,0,0,0,0,0,0,0,0,0,0,0,0,0,0,0,0,0,0,0,0,0,0,0,0,0,0,0,0,0,0,0,0,0,0,0,0,0,0,0,0,0,0,0,0,0,0,0,0,0,0,0,0,0,0,0,0,0,0,0,0,0,0,0,0,0,0,0,0,0,0,0,0,0,0,0,0,0,0,0,0,0,0,0,0,0,0,0,0,0,0,0,0,0,0,0,0,0,0,0,0,0,0,0,0,0,0,0,0,0,0,0,0,0,0,0,0,0,0,0,0,0,0,0,0,0,0,0,0,0,0,0,0,0,0,0,0,0,0,0,0,0,0,0,0,0,0,0,0,0,0,0,0,0,0,0,0,0,0,0,0,0,0,0,0,0,0,0,0,0,0,0,0,0,0,0,0,0,0,0,0,0,0,0,0,0,0,0,0,0,0,0,0,0,0,0,0,0,0,0,0,0,0,0,0,0,0,0,0,0,0,0,0,0,0,0,0,0,0,0,0,0,0,0,0,0,0,0,0,0,0,0,0,0,0,0,0,0,0,0,0,0,0,0,0,0,0,0,0,0,0,0,0,0,0,0,0,0,0,0,0,0,0,0,0,0,0,0,0,0,0,0,0,0,0,0,0,0,0,0,0,0,0,0,0,0,0,0,0,0,0,0,0,0,0,0,0,0,0,0,0,0,0,0,0,0,0,0,0,0,0,0,0,0,0,0,0,0,0,0,0,0,0,0,0,0,0,0,0,0,0,0,0,0,0,0,0,0,0,0,0,0,0,0,0,0,0,0,0,0,0,0,0,0,0,0,0,0,0,0,0,0,0,0,0,0,0,0,0,0,0,0,0,0,0,0,0,0,0,0,0,0,0,0,0,0,0,0,0,0,0,0,0,0,0,0,0,0,0,0,0,0,0,0,0,0,0,0,0,0,0,0,0,0,0,0,0,0,0,0,0,0,0,0,0,0,0,0,0,0,0,0,0,0,0,0,0,0,0,0,0,0,0,0,0,0,0,0,0,0,0,0,0,0,0,0,0,0,0,0,0,0,0,0,0,0,0,0,0,0,0,0,0,0,0,0,0,0,0,0,0,0,0,0,0,0,0,0,0,0,0,0,0,0,0,0,0,0,0,0,0,0,0,0,0,0,0,0,0,0,0,0,0,0,0,0,0,0,0,0,0,0,0,0,0,0,0,0,0,0,0,0,0,0,0,0,0,0,0,0,0,0,0,0,0,0,0,0,0,0,0,0,0,0,0,0,0,0,0,0,0,0,0,0,0,0,0,0,0,0,0,0,0,0,0,0,0,0,0,0,0,0,0,0,0,0,0,0,0,0,0,0,0,0,0,0,0,0,0,0,0,0,0,0,0,0,0,0,0,0,0,0,0,0,0,0,0,0,0,0,0,0,0,0,0,0,0,0,0,0,0,0,0,0,0,0,0,0,0,0,0,0,0,0,0,0,0,0,0,0,0,0,0,0,0,0,0,0,0,0,0,0,0,0,0,0,0,0,0,0,0,0,0,0,0,0,0,0,0,0,0,0],"trees":[{"base_weights":[1.998085E-3,-9.7453624E-1,6.937168E-1,-1.1741539E0,-4.8087808E-1,1.4066067E0,-4.0837148E-1,-1.2102479E-1,-2.9834857E-2,-7.054641E-2,1.7914025E-2,1.5789412E-1,-1.0557429E-1,-9.231427E-3,-1.297023E-1],"categories":[],"categories_nodes":[],"categories_segments":[],"categories_sizes":[],"default_left":[1,1,0,0,0,0,0,0,0,0,0,0,0,0,0],"id":0,"left_children":[1,3,5,7,9,11,13,-1,-1,-1,-1,-1,-1,-1,-1],"loss_changes":[2.4290531E4,1.4687441E3,1.6538625E4,3.352373E2,6.3676135E2,5.425672E3,2.3222668E3,0E0,0E0,0E0,0E0,0E0,0E0,0E0,0E0],"parents":[2147483647,0,0,1,1,2,2,3,3,4,4,5,5,6,6],"right_children":[2,4,6,8,10,12,14,-1,-1,-1,-1,-1,-1,-1,-1],"split_conditions":[9.679E1,8.437E1,4.889E1,1.25441E2,2.817E0,1.19624E2,1.13965E2,-1.2102479E-1,-2.9834857E-2,-7.054641E-2,1.7914025E-2,1.5789412E-1,-1.0557429E-1,-9.231427E-3,-1.297023E-1],"split_indices":[0,0,1,1,7,2,2,0,0,0,0,0,0,0,0],"split_type":[0,0,0,0,0,0,0,0,0,0,0,0,0,0,0],"sum_hessian":[3.5958023E4,1.4909343E4,2.1048682E4,1.0615454E4,4.2938887E3,1.2780981E4,8.267701E3,1.0194917E4,4.2053668E2,3.2036921E3,1.0901968E3,1.1945313E4,8.356674E2,6.099471E3,2.1682302E3],"tree_param":{"num_deleted":"0","num_feature":"30","num_nodes":"15","size_leaf_vector":"1"}},{"base_weights":[-1.6106444E-3,-8.342542E-1,6.68576E-1,-1.0777086E0,-3.141183E-1,1.2644095E0,-4.6898654E-1,-1.108012E-1,-1.655652E-2,-4.9701847E-2,3.2084525E-2,1.4336775E-1,-7.894351E-2,7.0416704E-2,-6.920671E-2],"categories":[],"categories_nodes":[],"categories_segments":[],"categories_sizes":[],"default_left":[1,1,0,0,0,0,0,0,0,0,0,0,0,0,0],"id":1,"left_children":[1,3,5,7,9,11,13,-1,-1,-1,-1,-1,-1,-1,-1],"loss_changes":[2.0116102E4,2.0353389E3,1.3538086E4,3.024873E2,5.955668E2,4.558006E3,1.7974033E3,0E0,0E0,0E0,0E0,0E0,0E0,0E0,0E0],"parents":[2147483647,0,0,1,1,2,2,3,3,4,4,5,5,6,6],"right_children":[2,4,6,8,10,12,14,-1,-1,-1,-1,-1,-1,-1,-1],"split_conditions":[1.00913E2,8.6663E1,5.4326E1,1.31295E2,2.897E0,1.72472E2,2.316E0,-1.108012E-1,-1.655652E-2,-4.9701847E-2,3.2084525E-2,1.4336775E-1,-7.894351E-2,7.0416704E-2,-6.920671E-2],"split_indices":[0,0,1,1,7,0,7,0,0,0,0,0,0,0,0],"split_type":[0,0,0,0,0,0,0,0,0,0,0,0,0,0,0],"sum_hessian":[3.604664E4,1.6074879E4,1.9971762E4,1.094902E4,5.1258594E3,1.3106643E4,6.8651196E3,1.0596757E4,3.522626E2,3.9797244E3,1.1461354E3,1.210898E4,9.97662E2,1.0965162E3,5.7686035E3],"tree_param":{"num_deleted":"0","num_feature":"30","num_nodes":"15","size_leaf_vector":"1"}},{"base_weights":[-2.6978226E-3,-9.013256E-1,5.1282847E-1,-1.0945753E0,-5.790389E-1,9.508443E-1,-5.185803E-1,-1.186796E-1,-4.351644E-2,-7.863339E-2,9.608092E-3,1.0789587E-1,-9.896995E-2,-6.2303632E-2,1.2974189E-1],"categories":[],"categories_nodes":[],"categories_segments":[],"categories_sizes":[],"default_left":[1,1,0,0,0,0,1,0,0,0,0,0,0,0,0],"id":2,"left_children":[1,3,5,7,9,11,13,-1,-1,-1,-1,-1,-1,-1,-1],"loss_changes":[1.6565273E4,8.112285E2,1.0265793E4,4.9496777E2,6.8420703E2,3.9662725E3,1.2857521E3,0E0,0E0,0E0,0E0,0E0,0E0,0E0,0E0],"parents":[2147483647,0,0,1,1,2,2,3,3,4,4,5,5,6,6],"right_children":[2,4,6,8,10,12,14,-1,-1,-1,-1,-1,-1,-1,-1],"split_conditions":[9.4185E1,7.727E1,5.7374E1,4.4444E1,2.809E0,1.19624E2,3.197E0,-1.186796E-1,-4.351644E-2,-7.863339E-2,9.608092E-3,1.0789587E-1,-9.896995E-2,-6.2303632E-2,1.2974189E-1],"split_indices":[0,0,1,13,7,2,4,0,0,0,0,0,0,0,0],"split_type":[0,0,0,0,0,0,0,0,0,0,0,0,0,0,0],"sum_hessian":[3.5755562E4,1.3034327E4,2.2721234E4,8.1468906E3,4.887437E3,1.5948394E4,6.772841E3,7.1466143E3,1.00027637E3,3.7391648E3,1.1482721E3,1.4961107E4,9.872861E2,6.4050786E3,3.677624E2],"tree_param":{"num_deleted":"0","num_feature":"30","num_nodes":"15","size_leaf_vector":"1"}},{"base_weights":[-5.668663E-3,-7.3017454E-1,5.438276E-1,-9.9397796E-1,-3.4585539E-1,1.1117266E0,-2.561636E-1,-1.0396347E-1,-1.5892167E-2,-1.15611E-2,-6.377561E-2,1.21873416E-1,-9.771671E-2,5.4057282E-3,-1.16352044E-1],"categories":[],"categories_nodes":[],"categories_segments":[],"categories_sizes":[],"default_left":[1,1,0,0,0,0,0,0,0,0,0,0,0,0,0],"id":3,"left_children":[1,3,5,7,9,11,13,-1,-1,-1,-1,-1,-1,-1,-1],"loss_changes":[1.4038305E4,1.5416221E3,9.110658E3,3.4365625E2,4.1608356E2,2.6227002E3,2.3437046E3,0E0,0E0,0E0,0E0,0E0,0E0,0E0,0E0],"parents":[2147483647,0,0,1,1,2,2,3,3,4,4,5,5,6,6],"right_children":[2,4,6,8,10,12,14,-1,-1,-1,-1,-1,-1,-1,-1],"split_conditions":[1.01217E2,8.3102E1,4.4146E1,1.20872E2,3.8774E1,1.23113E2,1.13965E2,-1.0396347E-1,-1.5892167E-2,-1.15611E-2,-6.377561E-2,1.21873416E-1,-9.771671E-2,5.4057282E-3,-1.16352044E-1],"split_indices":[0,0,1,1,16,2,2,0,0,0,0,0,0,0,0],"split_type":[0,0,0,0,0,0,0,0,0,0,0,0,0,0,0],"sum_hessian":[3.526009E4,1.5208064E4,2.0052023E4,9.017029E3,6.191035E3,1.1726914E4,8.325109E3,8.549349E3,4.6768036E2,3.4618252E3,2.72921E3,1.1155852E4,5.7106287E2,6.204695E3,2.1204146E3],"tree_param":{"num_deleted":"0","num_feature":"30","num_nodes":"15","size_leaf_vector":"1"}},{"base_weights":[-6.6438387E-3,-6.646759E-1,5.0505906E-1,-9.5822537E-1,-3.223893E-1,8.9489126E-1,-4.6187687E-1,-1.0248641E-1,-2.2143707E-2,-4.803535E-2,2.4405371E-2,1.0400497E-1,-7.9931974E-2,8.3325885E-2,-6.240681E-2],"categories":[],"categories_nodes":[],"categories_segments":[],"categories_sizes":[],"default_left":[1,1,0,0,0,0,0,0,0,0,0,0,0,0,0],"id":4,"left_children":[1,3,5,7,9,11,13,-1,-1,-1,-1,-1,-1,-1,-1],"loss_changes":[1.1727074E4,1.5305195E3,7.3855737E3,4.0243604E2,6.296222E2,3.4348037E3,1.1831532E3,0E0,0E0,0E0,0E0,0E0,0E0,0E0,0E0],"parents":[2147483647,0,0,1,1,2,2,3,3,4,4,5,5,6,6],"right_children":[2,4,6,8,10,12,14,-1,-1,-1,-1,-1,-1,-1,-1],"split_conditions":[1.02512E2,8.1302E1,5.957E1,5.1695E1,2.897E0,1.16601E2,2.119E0,-1.0248641E-1,-2.2143707E-2,-4.803535E-2,2.4405371E-2,1.0400497E-1,-7.9931974E-2,8.3325885E-2,-6.240681E-2],"split_indices":[0,0,1,13,7,2,7,0,0,0,0,0,0,0,0],"split_type":[0,0,0,0,0,0,0,0,0,0,0,0,0,0,0],"sum_hessian":[3.48257E4,1.5234442E4,1.959126E4,8.200114E3,7.034327E3,1.39622705E4,5.6289883E3,7.519614E3,6.805008E2,5.500541E3,1.533786E3,1.286076E4,1.1015115E3,6.260101E2,5.002978E3],"tree_param":{"num_deleted":"0","num_feature":"30","num_nodes":"15","size_leaf_vector":"1"}},{"base_weights":[-4.8894016E-3,4.9795607E-1,-5.612605E-1,7.063391E-2,8.82086E-1,-7.9264104E-1,2.5792697E-1,-5.8619436E-3,9.910236E-2,9.925563E-2,-8.9135915E-2,-9.8272055E-2,-3.4288313E-2,4.8178073E-2,-1.0415758E-1],"categories":[],"categories_nodes":[],"categories_segments":[],"categories_sizes":[],"default_left":[0,0,0,1,0,0,0,0,0,0,0,0,0,0,0],"id":5,"left_children":[1,3,5,7,9,11,13,-1,-1,-1,-1,-1,-1,-1,-1],"loss_changes":[9.59081E3,2.9557017E3,3.0849263E3,1.01425037E3,1.8586367E3,1.0845576E3,1.0433989E3,0E0,0E0,0E0,0E0,0E0,0E0,0E0,0E0],"parents":[2147483647,0,0,1,1,2,2,3,3,4,4,5,5,6,6],"right_children":[2,4,6,8,10,12,14,-1,-1,-1,-1,-1,-1,-1,-1],"split_conditions":[4.5114E1,7.2394E1,5.24E-1,3.564E0,1.23113E2,3.5374E1,1.11851E2,-5.8619436E-3,9.910236E-2,9.925563E-2,-8.9135915E-2,-9.8272055E-2,-3.4288313E-2,4.8178073E-2,-1.0415758E-1],"split_indices":[1,2,11,4,2,13,2,0,0,0,0,0,0,0,0],"split_type":[0,0,0,0,0,0,0,0,0,0,0,0,0,0,0],"sum_hessian":[3.4279215E4,1.8005783E4,1.6273433E4,8.524243E3,9.48154E3,1.2689344E4,3.5840886E3,7.475386E3,1.0488568E3,8.92597E3,5.555703E2,8.918828E3,3.7705159E3,3.0579517E3,5.261369E2],"tree_param":{"num_deleted":"0","num_feature":"30","num_nodes":"15","size_leaf_vector":"1"}},{"base_weights":[-6.9145327E-3,-5.608265E-1,4.6085283E-1,-8.557684E-1,-2.3909613E-1,6.923567E-1,-8.818123E-1,-9.011566E-2,4.246022E-3,1.0805719E-1,-2.8810386E-2,9.144869E-2,-2.624994E-2,-3.0883456E-2,-1.0666894E-1],"categories":[],"categories_nodes":[],"categories_segments":[],"categories_sizes":[],"default_left":[1,1,0,0,0,0,0,0,0,0,0,0,0,0,0],"id":6,"left_children":[1,3,5,7,9,11,13,-1,-1,-1,-1,-1,-1,-1,-1],"loss_changes":[8.750494E3,1.4670508E3,5.6919463E3,3.289082E2,4.7868784E2,3.3128145E3,2.8496094E2,0E0,0E0,0E0,0E0,0E0,0E0,0E0,0E0],"parents":[2147483647,0,0,1,1,2,2,3,3,4,4,5,5,6,6],"right_children":[2,4,6,8,10,12,14,-1,-1,-1,-1,-1,-1,-1,-1],"split_conditions":[1.05021E2,8.3527E1,1.13965E2,1.25441E2,-4.899E0,6.6656E1,1.23113E2,-9.011566E-2,4.246022E-3,1.0805719E-1,-2.8810386E-2,9.144869E-2,-2.624994E-2,-3.0883456E-2,-1.0666894E-1],"split_indices":[0,0,2,1,6,1,2,0,0,0,0,0,0,0,0],"split_type":[0,0,0,0,0,0,0,0,0,0,0,0,0,0,0],"sum_hessian":[3.37704E4,1.5461406E4,1.8308994E4,8.065661E3,7.3957446E3,1.5616811E4,2.692184E3,7.6776973E3,3.879637E2,2.6406332E2,7.131681E3,1.2669517E4,2.947294E3,6.5740424E2,2.0347798E3],"tree_param":{"num_deleted":"0","num_feature":"30","num_nodes":"15","size_leaf_vector":"1"}},{"base_weights":[-1.0865263E-2,-7.0375466E-1,3.1228748E-1,-1.2486668E-1,-7.8498024E-1,4.5454684E-1,-8.7387323E-1,6.757554E-2,-6.356145E-2,8.995278E-2,-8.052913E-2,3.7510865E-3,9.223087E-2,-3.574647E-2,-1.01949655E-1],"categories":[],"categories_nodes":[],"categories_segments":[],"categories_sizes":[],"default_left":[1,0,0,0,0,0,0,0,0,0,0,0,0,0,0],"id":7,"left_children":[1,3,5,7,9,11,13,-1,-1,-1,-1,-1,-1,-1,-1],"loss_changes":[7.4321587E3,4.962959E2,3.8200173E3,5.3210266E2,3.174707E2,3.9428706E3,1.819524E2,0E0,0E0,0E0,0E0,0E0,0E0,0E0,0E0],"parents":[2147483647,0,0,1,1,2,2,3,3,4,4,5,5,6,6],"right_children":[2,4,6,8,10,12,14,-1,-1,-1,-1,-1,-1,-1,-1],"split_conditions":[9.3205E1,1.5548E1,1.15204E2,1.5821E1,-5.614E0,3.7662E1,1.23113E2,6.757554E-2,-6.356145E-2,8.995278E-2,-8.052913E-2,3.7510865E-3,9.223087E-2,-3.574647E-2,-1.01949655E-1],"split_indices":[0,19,2,3,6,13,2,0,0,0,0,0,0,0,0],"split_type":[0,0,0,0,0,0,0,0,0,0,0,0,0,0,0],"sum_hessian":[3.3190766E4,1.0555966E4,2.2634799E4,1.2992017E3,9.256765E3,2.0211408E4,2.42339E3,5.0588275E2,7.9331885E2,1.09768486E2,9.146996E3,1.068564E4,9.525769E3,5.338189E2,1.8895709E3],"tree_param":{"num_deleted":"0","num_feature":"30","num_nodes":"15","size_leaf_vector":"1"}},{"base_weights":[-6.2285336E-3,4.118781E-1,-4.7517782E-1,-1.3427876E-1,8.894901E-1,-5.563821E-1,1.0387214E0,-3.7941445E-2,3.1743117E-2,9.851357E-2,-5.981989E-2,-8.145284E-2,-1.7522201E-2,-3.563246E-2,1.3602012E-1],"categories":[],"categories_nodes":[],"categories_segments":[],"categories_sizes":[],"default_left":[0,0,1,0,1,0,0,0,0,0,0,0,0,0,0],"id":8,"left_children":[1,3,5,7,9,11,13,-1,-1,-1,-1,-1,-1,-1,-1],"loss_changes":[6.4228125E3,4.5174307E3,1.8986997E3,8.9481244E2,1.315168E3,1.4418027E3,3.5315845E2,0E0,0E0,0E0,0E0,0E0,0E0,0E0,0E0],"parents":[2147483647,0,0,1,1,2,2,3,3,4,4,5,5,6,6],"right_children":[2,4,6,8,10,12,14,-1,-1,-1,-1,-1,-1,-1,-1],"split_conditions":[4.4146E1,1.104E2,3.342E0,2.385E0,1.77316E2,3.1949E1,5.5E-1,-3.7941445E-2,3.1743117E-2,9.851357E-2,-5.981989E-2,-8.145284E-2,-1.7522201E-2,-3.563246E-2,1.3602012E-1],"split_indices":[1,0,4,24,0,13,12,0,0,0,0,0,0,0,0],"split_type":[0,0,0,0,0,0,0,0,0,0,0,0,0,0,0],"sum_hessian":[3.275562E4,1.7316588E4,1.5439032E4,8.0789263E3,9.237661E3,1.4653655E4,7.853772E2,5.237033E3,2.8418933E3,8.679952E3,5.577084E2,8.735961E3,5.9176943E3,1.4706917E2,6.3830804E2],"tree_param":{"num_deleted":"0","num_feature":"30","num_nodes":"15","size_leaf_vector":"1"}},{"base_weights":[-6.5357178E-3,-4.683236E-1,3.776679E-1,-8.057871E-1,-2.3367538E-1,5.682482E-1,-7.2195786E-1,-9.106235E-2,-5.3579095E-3,-3.8507506E-2,2.05018E-2,1.8930836E-2,1.0362535E-1,5.9860167E-3,-8.944928E-2],"categories":[],"categories_nodes":[],"categories_segments":[],"categories_sizes":[],"default_left":[1,1,0,0,0,0,0,0,0,0,0,0,0,0,0],"id":9,"left_children":[1,3,5,7,9,11,13,-1,-1,-1,-1,-1,-1,-1,-1],"loss_changes":[5.7146787E3,1.1581279E3,3.6849868E3,4.7303784E2,5.7325244E2,2.657392E3,3.5043396E2,0E0,0E0,0E0,0E0,0E0,0E0,0E0,0E0],"parents":[2147483647,0,0,1,1,2,2,3,3,4,4,5,5,6,6],"right_children":[2,4,6,8,10,12,14,-1,-1,-1,-1,-1,-1,-1,-1],"split_conditions":[1.05629E2,7.727E1,1.64334E2,4.6529E1,2.858E0,4.1497E1,7.62E-1,-9.106235E-2,-5.3579095E-3,-3.8507506E-2,2.05018E-2,1.8930836E-2,1.0362535E-1,5.9860167E-3,-8.944928E-2],"split_indices":[0,0,0,13,7,13,10,0,0,0,0,0,0,0,0],"split_type":[0,0,0,0,0,0,0,0,0,0,0,0,0,0,0],"sum_hessian":[3.2207791E4,1.4626938E4,1.7580854E4,5.998154E3,8.628785E3,1.4984343E4,2.5965103E3,5.2642554E3,7.338983E2,6.4149956E3,2.2137893E3,8.280829E3,6.703513E3,4.6953412E2,2.126976E3],"tree_param":{"num_deleted":"0","num_feature":"30","num_nodes":"15","size_leaf_vector":"1"}},{"base_weights":[-1.0999939E-2,2.8487518E-1,-5.285069E-1,-1.3633761E-1,7.135939E-1,-7.1027964E-1,1.8677567E-1,-6.8140976E-2,-7.7002525E-4,8.362882E-2,-4.754062E-2,-8.763317E-2,-3.0245362E-2,4.9551748E-2,-7.982593E-2],"categories":[],"categories_nodes":[],"categories_segments":[],"categories_sizes":[],"default_left":[0,1,0,0,0,0,0,0,0,0,0,0,0,0,0],"id":10,"left_children":[1,3,5,7,9,11,13,-1,-1,-1,-1,-1,-1,-1,-1],"loss_changes":[4.8441265E3,3.6349514E3,1.496406E3,7.1195935E2,1.455668E3,6.2116455E2,7.098239E2,0E0,0E0,0E0,0E0,0E0,0E0,0E0,0E0],"parents":[2147483647,0,0,1,1,2,2,3,3,4,4,5,5,6,6],"right_children":[2,4,6,8,10,12,14,-1,-1,-1,-1,-1,-1,-1,-1],"split_conditions":[5.5636E1,1.12031E2,5.24E-1,5.15E-1,1.13965E2,3.6288E1,1.70221E2,-6.8140976E-2,-7.7002525E-4,8.362882E-2,-4.754062E-2,-8.763317E-2,-3.0245362E-2,4.9551748E-2,-7.982593E-2],"split_indices":[1,0,11,12,2,13,0,0,0,0,0,0,0,0,0],"split_type":[0,0,0,0,0,0,0,0,0,0,0,0,0,0,0],"sum_hessian":[3.1634691E4,2.012757E4,1.1507121E4,1.0153004E4,9.974565E3,9.175407E3,2.3317139E3,1.9377831E3,8.215221E3,9.041826E3,9.327396E2,6.51968E3,2.6557268E3,1.7756613E3,5.560527E2],"tree_param":{"num_deleted":"0","num_feature":"30","num_nodes":"15","size_leaf_vector":"1"}},{"base_weights":[-1.0490837E-2,-6.2778854E-1,2.094489E-1,-9.4786894E-1,-5.024857E-1,7.746451E-2,1.1216093E0,-1.0150673E-1,-4.8032448E-2,-5.2829962E-2,1.10072486E-1,2.575408E-2,-4.9513247E-2,-3.4737561E-3,1.2972978E-1],"categories":[],"categories_nodes":[],"categories_segments":[],"categories_sizes":[],"default_left":[1,0,1,0,0,0,0,0,0,0,0,0,0,0,0],"id":11,"left_children":[1,3,5,7,9,11,13,-1,-1,-1,-1,-1,-1,-1,-1],"loss_changes":[4.209687E3,3.2620654E2,2.7521887E3,7.147412E1,2.42927E2,2.0595127E3,5.871018E2,0E0,0E0,0E0,0E0,0E0,0E0,0E0,0E0],"parents":[2147483647,0,0,1,1,2,2,3,3,4,4,5,5,6,6],"right_children":[2,4,6,8,10,12,14,-1,-1,-1,-1,-1,-1,-1,-1],"split_conditions":[8.9474E1,4.9095E1,3.197E0,1.252E0,9.282E1,6.3408E1,5.07E-1,-1.0150673E-1,-4.8032448E-2,-5.2829962E-2,1.10072486E-1,2.575408E-2,-4.9513247E-2,-3.4737561E-3,1.2972978E-1],"split_indices":[0,2,4,11,8,1,12,0,0,0,0,0,0,0,0],"split_type":[0,0,0,0,0,0,0,0,0,0,0,0,0,0,0],"sum_hessian":[3.100444E4,8.1442847E3,2.2860154E4,2.2894436E3,5.8548413E3,1.997148E4,2.888674E3,2.0007173E3,2.8872638E2,5.7627236E3,9.211759E1,1.5193744E4,4.777737E3,3.8110672E2,2.5075671E3],"tree_param":{"num_deleted":"0","num_feature":"30","num_nodes":"15","size_leaf_vector":"1"}},{"base_weights":[-5.154263E-3,-3.7413892E-1,3.1689438E-1,-7.0759916E-1,-1.8446237E-1,4.856528E-1,-6.9115525E-1,-8.2989275E-2,-1.8742437E-3,-3.3163216E-2,1.101311E-2,-8.738986E-3,7.6462634E-2,-2.5259906E-2,-8.926162E-2],"categories":[],"categories_nodes":[],"categories_segments":[],"categories_sizes":[],"default_left":[1,1,0,0,0,0,0,0,0,0,0,0,0,0,0],"id":12,"left_children":[1,3,5,7,9,11,13,-1,-1,-1,-1,-1,-1,-1,-1],"loss_changes":[3.641861E3,9.032556E2,2.7842158E3,4.3621655E2,3.948128E2,2.2410964E3,2.0714917E2,0E0,0E0,0E0,0E0,0E0,0E0,0E0,0E0],"parents":[2147483647,0,0,1,1,2,2,3,3,4,4,5,5,6,6],"right_children":[2,4,6,8,10,12,14,-1,-1,-1,-1,-1,-1,-1,-1],"split_conditions":[1.07204E2,7.67E1,1.12878E2,4.4444E1,1.206E0,3.1677E1,1.23113E2,-8.2989275E-2,-1.8742437E-3,-3.3163216E-2,1.101311E-2,-8.738986E-3,7.6462634E-2,-2.5259906E-2,-8.926162E-2],"split_indices":[0,0,2,13,11,13,2,0,0,0,0,0,0,0,0],"split_type":[0,0,0,0,0,0,0,0,0,0,0,0,0,0,0],"sum_hessian":[3.06454E4,1.4281884E4,1.6363516E4,5.1772705E3,9.104614E3,1.4017374E4,2.3461418E3,4.396542E3,7.8072833E2,6.071403E3,3.0332112E3,4.5898984E3,9.427475E3,7.392146E2,1.6069271E3],"tree_param":{"num_deleted":"0","num_feature":"30","num_nodes":"15","size_leaf_vector":"1"}},{"base_weights":[-6.5301186E-3,3.217462E-1,-3.378747E-1,-5.2579097E-2,7.213665E-1,-5.586029E-1,2.3869886E-1,-2.7817557E-2,3.551426E-2,7.9468146E-2,-5.4726012E-2,-1.0088254E-4,-6.486153E-2,4.0047288E-2,-7.0640884E-2],"categories":[],"categories_nodes":[],"categories_segments":[],"categories_sizes":[],"default_left":[0,0,0,0,1,0,0,0,0,0,0,0,0,0,0],"id":13,"left_children":[1,3,5,7,9,11,13,-1,-1,-1,-1,-1,-1,-1,-1],"loss_changes":[3.2703164E3,2.2592285E3,1.9044E3,7.1746564E2,6.7983374E2,5.430989E2,6.3373505E2,0E0,0E0,0E0,0E0,0E0,0E0,0E0,0E0],"parents":[2147483647,0,0,1,1,2,2,3,3,4,4,5,5,6,6],"right_children":[2,4,6,8,10,12,14,-1,-1,-1,-1,-1,-1,-1,-1],"split_conditions":[3.9584E1,1.13687E2,4.9E-1,2.246E0,1.82914E2,8.57E-1,1.70221E2,-2.7817557E-2,3.551426E-2,7.9468146E-2,-5.4726012E-2,-1.0088254E-4,-6.486153E-2,4.0047288E-2,-7.0640884E-2],"split_indices":[1,0,11,24,0,10,0,0,0,0,0,0,0,0,0],"split_type":[0,0,0,0,0,0,0,0,0,0,0,0,0,0,0],"sum_hessian":[3.006363E4,1.5101752E4,1.4961879E4,7.798112E3,7.3036406E3,1.0819795E4,4.142084E3,5.020524E3,2.7775876E3,6.9049707E3,3.9866995E2,1.50401E3,9.315785E3,3.5371982E3,6.0488574E2],"tree_param":{"num_deleted":"0","num_feature":"30","num_nodes":"15","size_leaf_vector":"1"}},{"base_weights":[-1.1757045E-3,3.3051717E-1,-2.893634E-1,-1.187323E-2,7.255179E-1,-4.9194157E-1,2.3923269E-1,8.712109E-2,-1.4425158E-2,7.943402E-2,-4.7246553E-2,-7.769999E-3,-6.086884E-2,5.8325328E-2,-1.5603569E-2],"categories":[],"categories_nodes":[],"categories_segments":[],"categories_sizes":[],"default_left":[0,0,0,0,1,0,0,0,0,0,0,0,0,0,0],"id":14,"left_children":[1,3,5,7,9,11,13,-1,-1,-1,-1,-1,-1,-1,-1],"loss_changes":[2.8312026E3,1.8622944E3,1.697204E3,8.625157E2,5.275217E2,5.540703E2,5.9726666E2,0E0,0E0,0E0,0E0,0E0,0E0,0E0,0E0],"parents":[2147483647,0,0,1,1,2,2,3,3,4,4,5,5,6,6],"right_children":[2,4,6,8,10,12,14,-1,-1,-1,-1,-1,-1,-1,-1],"split_conditions":[3.5564E1,1.14992E2,7.56E-1,9.329E0,1.82914E2,9.97E-1,2.633E0,8.712109E-2,-1.4425158E-2,7.943402E-2,-4.7246553E-2,-7.769999E-3,-6.086884E-2,5.8325328E-2,-1.5603569E-2],"split_indices":[1,0,11,3,0,10,7,0,0,0,0,0,0,0,0],"split_type":[0,0,0,0,0,0,0,0,0,0,0,0,0,0,0],"sum_hessian":[2.9616246E4,1.3768774E4,1.5847472E4,7.376084E3,6.39269E3,1.1456843E4,4.3906284E3,9.60838E2,6.415246E3,6.0457104E3,3.469797E2,2.5193486E3,8.937494E3,2.34724E3,2.0433885E3],"tree_param":{"num_deleted":"0","num_feature":"30","num_nodes":"15","size_leaf_vector":"1"}},{"base_weights":[-5.9627052E-3,-1.0161812E-1,8.90121E-1,-4.8948097E-1,1.05733946E-1,-7.673367E-2,1.1071789E0,-6.959066E-2,-9.800359E-3,-4.479222E-3,3.0097583E-2,1.7096406E-2,-8.162934E-2,1.226501E-1,4.9081665E-2],"categories":[],"categories_nodes":[],"categories_segments":[],"categories_sizes":[],"default_left":[1,0,0,0,0,0,0,0,0,0,0,0,0,0,0],"id":15,"left_children":[1,3,5,7,9,11,13,-1,-1,-1,-1,-1,-1,-1,-1],"loss_changes":[2.49546E3,2.115631E3,5.893921E2,7.404844E2,5.0380746E2,9.462051E1,1.6805933E2,0E0,0E0,0E0,0E0,0E0,0E0,0E0,0E0],"parents":[2147483647,0,0,1,1,2,2,3,3,4,4,5,5,6,6],"right_children":[2,4,6,8,10,12,14,-1,-1,-1,-1,-1,-1,-1,-1],"split_conditions":[3.424E0,2.8007E1,5.95E-1,8.24E-1,7.31E-1,3E0,3E0,-6.959066E-2,-9.800359E-3,-4.479222E-3,3.0097583E-2,1.7096406E-2,-8.162934E-2,1.226501E-1,4.9081665E-2],"split_indices":[4,13,12,11,11,22,22,0,0,0,0,0,0,0,0],"split_type":[0,0,0,0,0,0,0,0,0,0,0,0,0,0,0],"sum_hessian":[2.9111318E4,2.6304268E4,2.8070493E3,9.163013E3,1.7141256E4,5.147616E2,2.2922878E3,5.99898E3,3.1640334E3,9.679441E3,7.461814E3,3.8618652E2,1.2857504E2,1.919668E3,3.7261987E2],"tree_param":{"num_deleted":"0","num_feature":"30","num_nodes":"15","size_leaf_vector":"1"}},{"base_weights":[-6.9366167E-3,-5.1113516E-1,1.512765E-1,-5.7287925E-1,3.1972742E-1,5.1253743E-2,9.052006E-1,-7.0457555E-2,-5.6327027E-3,1.0150983E-1,-4.23041E-2,-3.1345148E-2,2.2545723E-2,4.8290514E-3,1.0805519E-1],"categories":[],"categories_nodes":[],"categories_segments":[],"categories_sizes":[],"default_left":[1,0,1,0,0,0,0,0,0,0,0,0,0,0,0],"id":16,"left_children":[1,3,5,7,9,11,13,-1,-1,-1,-1,-1,-1,-1,-1],"loss_changes":[2.2988376E3,3.5328772E2,1.6540656E3,4.3583276E2,2.466752E2,1.2305034E3,3.8599512E2,0E0,0E0,0E0,0E0,0E0,0E0,0E0,0E0],"parents":[2147483647,0,0,1,1,2,2,3,3,4,4,5,5,6,6],"right_children":[2,4,6,8,10,12,14,-1,-1,-1,-1,-1,-1,-1,-1],"split_conditions":[8.8771E1,1.09656E2,3.316E0,2.716E0,2.163E0,2.9421E1,5.82E-1,-7.0457555E-2,-5.6327027E-3,1.0150983E-1,-4.23041E-2,-3.1345148E-2,2.2545723E-2,4.8290514E-3,1.0805519E-1],"split_indices":[0,1,4,7,7,13,12,0,0,0,0,0,0,0,0],"split_type":[0,0,0,0,0,0,0,0,0,0,0,0,0,0,0],"sum_hessian":[2.8816055E4,6.8820117E3,2.1934043E4,6.406253E3,4.7575888E2,1.9365854E4,2.5681907E3,5.1044873E3,1.3017657E3,2.4552998E2,2.302289E2,6.259799E3,1.3106054E4,4.3647772E2,2.131713E3],"tree_param":{"num_deleted":"0","num_feature":"30","num_nodes":"15","size_leaf_vector":"1"}},{"base_weights":[-5.508801E-3,-4.7504896E-1,1.3766375E-1,-8.8917714E-1,-3.538313E-1,2.175467E-1,-6.9686157E-1,-9.0847574E-2,6.621038E-2,2.7348591E-2,-4.146568E-2,1.0816791E-2,8.09662E-2,-2.228567E-2,-8.250163E-2],"categories":[],"categories_nodes":[],"categories_segments":[],"categories_sizes":[],"default_left":[1,0,0,1,0,1,0,0,0,0,0,0,0,0,0],"id":17,"left_children":[1,3,5,7,9,11,13,-1,-1,-1,-1,-1,-1,-1,-1],"loss_changes":[1.91357E3,3.3358447E2,1.4543441E3,4.56698E1,1.9650732E2,1.2893005E3,1.1559088E2,0E0,0E0,0E0,0E0,0E0,0E0,0E0,0E0],"parents":[2147483647,0,0,1,1,2,2,3,3,4,4,5,5,6,6],"right_children":[2,4,6,8,10,12,14,-1,-1,-1,-1,-1,-1,-1,-1],"split_conditions":[8.8771E1,4.6718E1,1.70221E2,1.001453E3,1.1054E1,6.54E-1,8.24E-1,-9.0847574E-2,6.621038E-2,2.7348591E-2,-4.146568E-2,1.0816791E-2,8.09662E-2,-2.228567E-2,-8.250163E-2],"split_indices":[0,2,0,5,19,12,10,0,0,0,0,0,0,0,0],"split_type":[0,0,0,0,0,0,0,0,0,0,0,0,0,0,0],"sum_hessian":[2.8463068E4,6.650422E3,2.1812646E4,1.5044122E3,5.14601E3,1.9907762E4,1.904884E3,1.4863359E3,1.8076283E1,4.545512E2,4.6914585E3,1.6804691E4,3.1030723E3,4.059901E2,1.4988939E3],"tree_param":{"num_deleted":"0","num_feature":"30","num_nodes":"15","size_leaf_vector":"1"}},{"base_weights":[-3.5691138E-3,-2.671967E-1,2.2902898E-1,-3.8598529E-1,8.4230825E-2,7.0409554E-1,-1.5976384E-2,-5.363219E-2,-1.9496065E-3,2.3349274E-2,-8.671732E-2,1.622085E-2,8.467396E-2,1.4513085E-2,-6.518116E-2],"categories":[],"categories_nodes":[],"categories_segments":[],"categories_sizes":[],"default_left":[1,0,0,0,0,0,0,0,0,0,0,0,0,0,0],"id":18,"left_children":[1,3,5,7,9,11,13,-1,-1,-1,-1,-1,-1,-1,-1],"loss_changes":[1.7255815E3,5.5068256E2,1.7401362E3,5.4316125E2,4.735317E2,3.9306323E2,1.0105836E3,0E0,0E0,0E0,0E0,0E0,0E0,0E0,0E0],"parents":[2147483647,0,0,1,1,2,2,3,3,4,4,5,5,6,6],"right_children":[2,4,6,8,10,12,14,-1,-1,-1,-1,-1,-1,-1,-1],"split_conditions":[1.07831E2,2.802E0,2.421E0,1.104E0,8.3434E1,4.52E-1,1.10911E2,-5.363219E-2,-1.9496065E-3,2.3349274E-2,-8.671732E-2,1.622085E-2,8.467396E-2,1.4513085E-2,-6.518116E-2],"split_indices":[0,7,7,11,2,11,2,0,0,0,0,0,0,0,0],"split_type":[0,0,0,0,0,0,0,0,0,0,0,0,0,0,0],"sum_hessian":[2.8138936E4,1.3189619E4,1.4949315E4,9.857512E3,3.332108E3,5.0858853E3,9.86343E3,6.9897866E3,2.8677249E3,2.880891E3,4.512167E2,1.0602528E3,4.0256326E3,7.8700874E3,1.9933424E3],"tree_param":{"num_deleted":"0","num_feature":"30","num_nodes":"15","size_leaf_vector":"1"}},{"base_weights":[-7.5309803E-3,1.4735806E-1,-3.8700697E-1,-9.5847435E-2,4.2493984E-1,-6.750014E-1,-1.4264934E-1,-5.6328505E-2,2.459689E-4,1.6179482E-2,7.131013E-2,-7.032826E-2,5.198015E-2,2.1961657E-3,-7.6938376E-2],"categories":[],"categories_nodes":[],"categories_segments":[],"categories_sizes":[],"default_left":[0,1,0,0,0,1,0,0,0,0,0,0,0,0,0],"id":19,"left_children":[1,3,5,7,9,11,13,-1,-1,-1,-1,-1,-1,-1,-1],"loss_changes":[1.6309125E3,1.3303026E3,5.659059E2,4.826663E2,6.9767615E2,1.2510315E2,4.4903317E2,0E0,0E0,0E0,0E0,0E0,0E0,0E0,0E0],"parents":[2147483647,0,0,1,1,2,2,3,3,4,4,5,5,6,6],"right_children":[2,4,6,8,10,12,14,-1,-1,-1,-1,-1,-1,-1,-1],"split_conditions":[6.1302E1,1.13004E2,2.8355E1,4.64E-1,4.4737E1,4.006E0,1.16601E2,-5.6328505E-2,2.459689E-4,1.6179482E-2,7.131013E-2,-7.032826E-2,5.198015E-2,2.1961657E-3,-7.6938376E-2],"split_indices":[1,0,13,12,13,4,2,0,0,0,0,0,0,0,0],"split_type":[0,0,0,0,0,0,0,0,0,0,0,0,0,0,0],"sum_hessian":[2.7745648E4,1.9703834E4,8.041815E3,1.0502574E4,9.201259E3,3.6905056E3,4.351309E3,1.8241669E3,8.678407E3,4.810207E3,4.391052E3,3.6055725E3,8.4933136E1,3.4469397E3,9.043694E2],"tree_param":{"num_deleted":"0","num_feature":"30","num_nodes":"15","size_leaf_vector":"1"}},{"base_weights":[-5.7857702E-3,7.34958E-1,-7.351982E-2,2.2018832E-1,9.7990584E-1,-4.2754436E-1,5.962592E-2,-6.3300054E-3,9.372514E-2,1.032967E-1,-9.449344E-2,-6.2969774E-2,-7.3103406E-3,-1.7353358E-2,2.7744684E-2],"categories":[],"categories_nodes":[],"categories_segments":[],"categories_sizes":[],"default_left":[0,0,0,0,0,0,1,0,0,0,0,0,0,0,0],"id":20,"left_children":[1,3,5,7,9,11,13,-1,-1,-1,-1,-1,-1,-1,-1],"loss_changes":[1.3772365E3,2.897583E2,1.1855012E3,1.5104695E2,1.6009583E2,4.9245947E2,9.2828357E2,0E0,0E0,0E0,0E0,0E0,0E0,0E0,0E0],"parents":[2147483647,0,0,1,1,2,2,3,3,4,4,5,5,6,6],"right_children":[2,4,6,8,10,12,14,-1,-1,-1,-1,-1,-1,-1,-1],"split_conditions":[-2.562E0,1.06256E2,2.6208E1,8.99715E2,1.27448E2,8.24E-1,1.13004E2,-6.3300054E-3,9.372514E-2,1.032967E-1,-9.449344E-2,-6.2969774E-2,-7.3103406E-3,-1.7353358E-2,2.7744684E-2],"split_indices":[6,0,13,5,2,11,0,0,0,0,0,0,0,0,0],"split_type":[0,0,0,0,0,0,0,0,0,0,0,0,0,0,0],"sum_hessian":[2.7447361E4,2.2987073E3,2.5148654E4,7.4176056E2,1.5569467E3,6.8726313E3,1.8276023E4,5.322493E2,2.0951122E2,1.5156294E3,4.13173E1,4.376018E3,2.4966135E3,8.827312E3,9.448712E3],"tree_param":{"num_deleted":"0","num_feature":"30","num_nodes":"15","size_leaf_vector":"1"}},{"base_weights":[-1.9194492E-3,1.3325769E-1,-3.7194476E-1,8.982073E-2,9.493796E-1,-4.871917E-1,1.5204485E-1,-2.3312361E-3,2.9031305E-2,1.1540152E-1,9.730504E-3,-6.100129E-2,-8.535781E-3,-5.012167E-3,8.785549E-2],"categories":[],"categories_nodes":[],"categories_segments":[],"categories_sizes":[],"default_left":[0,1,0,0,0,0,0,0,0,0,0,0,0,0,0],"id":21,"left_children":[1,3,5,7,9,11,13,-1,-1,-1,-1,-1,-1,-1,-1],"loss_changes":[1.357431E3,7.045491E2,4.385774E2,4.281031E2,1.7501215E2,2.9372595E2,1.9243835E2,0E0,0E0,0E0,0E0,0E0,0E0,0E0,0E0],"parents":[2147483647,0,0,1,1,2,2,3,3,4,4,5,5,6,6],"right_children":[2,4,6,8,10,12,14,-1,-1,-1,-1,-1,-1,-1,-1],"split_conditions":[6.3408E1,7.58036E2,4.6529E1,4.1497E1,3E0,2.69E-1,7.5586E1,-2.3312361E-3,2.9031305E-2,1.1540152E-1,9.730504E-3,-6.100129E-2,-8.535781E-3,-5.012167E-3,8.785549E-2],"split_indices":[1,5,13,13,22,11,19,0,0,0,0,0,0,0,0],"split_type":[0,0,0,0,0,0,0,0,0,0,0,0,0,0,0],"sum_hessian":[2.7136338E4,1.9875932E4,7.2604077E3,1.8872574E4,1.00335657E3,5.951498E3,1.3089098E3,1.2065296E4,6.807279E3,8.0876733E2,1.9458923E2,4.557862E3,1.3936361E3,1.0246974E3,2.8421234E2],"tree_param":{"num_deleted":"0","num_feature":"30","num_nodes":"15","size_leaf_vector":"1"}},{"base_weights":[-9.568216E-4,8.918583E-2,-4.692366E-1,-1.1170059E-1,3.8875294E-1,-7.126847E-1,-1.1772101E-1,-7.3678575E-2,-6.109963E-3,1.1068165E-2,7.66959E-2,-8.171472E-2,-6.908546E-4,3.6104348E-2,-6.662472E-2],"categories":[],"categories_nodes":[],"categories_segments":[],"categories_sizes":[],"default_left":[0,0,0,0,0,0,0,0,0,0,0,0,0,0,0],"id":22,"left_children":[1,3,5,7,9,11,13,-1,-1,-1,-1,-1,-1,-1,-1],"loss_changes":[1.1338124E3,1.3555226E3,3.7095886E2,4.2643768E2,9.5080505E2,1.8884607E2,4.6647162E2,0E0,0E0,0E0,0E0,0E0,0E0,0E0,0E0],"parents":[2147483647,0,0,1,1,2,2,3,3,4,4,5,5,6,6],"right_children":[2,4,6,8,10,12,14,-1,-1,-1,-1,-1,-1,-1,-1],"split_conditions":[1.64334E2,1.17264E2,4.0057E1,7.2079E1,4.4168E1,1.11814E2,1.25175E2,-7.3678575E-2,-6.109963E-3,1.1068165E-2,7.66959E-2,-8.171472E-2,-6.908546E-4,3.6104348E-2,-6.662472E-2],"split_indices":[0,0,13,0,13,1,2,0,0,0,0,0,0,0,0],"split_type":[0,0,0,0,0,0,0,0,0,0,0,0,0,0,0],"sum_hessian":[2.6857975E4,2.2523139E4,4.3348364E3,1.3482529E4,9.040609E3,2.5604949E3,1.7743414E3,1.00866766E3,1.2473862E4,5.210757E3,3.829852E3,2.2302378E3,3.302571E2,9.475997E2,8.267418E2],"tree_param":{"num_deleted":"0","num_feature":"30","num_nodes":"15","size_leaf_vector":"1"}},{"base_weights":[-4.366047E-3,-6.874424E-2,6.2419975E-1,1.6087581E-1,-2.4238521E-1,-6.2494654E-2,8.566669E-1,7.926761E-2,5.498992E-3,-3.6734115E-2,9.006727E-3,-4.822169E-2,4.349636E-2,2.7626097E-2,9.720486E-2],"categories":[],"categories_nodes":[],"categories_segments":[],"categories_sizes":[],"default_left":[1,0,0,0,0,0,0,0,0,0,0,0,0,0,0],"id":23,"left_children":[1,3,5,7,9,11,13,-1,-1,-1,-1,-1,-1,-1,-1],"loss_changes":[1.0746045E3,9.604843E2,3.9389832E2,6.938928E2,5.698474E2,1.306875E2,1.2317151E2,0E0,0E0,0E0,0E0,0E0,0E0,0E0,0E0],"parents":[2147483647,0,0,1,1,2,2,3,3,4,4,5,5,6,6],"right_children":[2,4,6,8,10,12,14,-1,-1,-1,-1,-1,-1,-1,-1],"split_conditions":[3.424E0,3.2508E1,6.66E-1,8.198E0,9.35E-1,1.14315E2,9.6161E1,7.926761E-2,5.498992E-3,-3.6734115E-2,9.006727E-3,-4.822169E-2,4.349636E-2,2.7626097E-2,9.720486E-2],"split_indices":[4,1,12,3,11,0,0,0,0,0,0,0,0,0,0],"split_type":[0,0,0,0,0,0,0,0,0,0,0,0,0,0,0],"sum_hessian":[2.6553725E4,2.4087549E4,2.4661748E3,1.03719375E4,1.3715612E4,6.239105E2,1.8422642E3,1.4878347E3,8.884103E3,9.968671E3,3.7469412E3,3.3841177E2,2.8549875E2,3.0606342E2,1.5362008E3],"tree_param":{"num_deleted":"0","num_feature":"30","num_nodes":"15","size_leaf_vector":"1"}},{"base_weights":[-5.5929744E-3,-6.534064E-2,5.7038546E-1,1.6372564E-1,-2.1226525E-1,-2.9191145E-1,7.2739184E-1,9.625795E-5,4.58679E-2,-5.1580746E-2,-8.106565E-3,-4.2029144E-3,-9.541652E-2,8.613821E-2,8.947847E-3],"categories":[],"categories_nodes":[],"categories_segments":[],"categories_sizes":[],"default_left":[1,0,0,0,0,0,0,0,0,0,0,0,0,0,0],"id":24,"left_children":[1,3,5,7,9,11,13,-1,-1,-1,-1,-1,-1,-1,-1],"loss_changes":[9.0466724E2,8.016243E2,3.347052E2,4.468366E2,5.7784766E2,6.3055645E1,1.7859656E2,0E0,0E0,0E0,0E0,0E0,0E0,0E0,0E0],"parents":[2147483647,0,0,1,1,2,2,3,3,4,4,5,5,6,6],"right_children":[2,4,6,8,10,12,14,-1,-1,-1,-1,-1,-1,-1,-1],"split_conditions":[3.368E0,2.8662E1,5.07E-1,2.246E0,2.591E1,3E0,3E0,9.625795E-5,4.58679E-2,-5.1580746E-2,-8.106565E-3,-4.2029144E-3,-9.541652E-2,8.613821E-2,8.947847E-3],"split_indices":[4,1,12,24,13,22,22,0,0,0,0,0,0,0,0],"split_type":[0,0,0,0,0,0,0,0,0,0,0,0,0,0,0],"sum_hessian":[2.628617E4,2.3816512E4,2.469659E3,9.306647E3,1.4509863E4,3.802766E2,2.0893823E3,5.9978687E3,3.308779E3,4.37801E3,1.0131854E4,2.7687085E2,1.0340575E2,1.726409E3,3.6297314E2],"tree_param":{"num_deleted":"0","num_feature":"30","num_nodes":"15","size_leaf_vector":"1"}},{"base_weights":[-5.1911604E-3,4.3096654E-2,-7.03607E-1,-1.3620509E-1,2.855298E-1,-8.589196E-1,-4.122023E-1,-2.4386613E-2,1.6721621E-2,8.367051E-3,6.9998324E-2,-1.1493961E-2,-8.959198E-2,3.4745634E-2,-5.205611E-2],"categories":[],"categories_nodes":[],"categories_segments":[],"categories_sizes":[],"default_left":[0,1,0,0,0,0,0,0,0,0,0,0,0,0,0],"id":25,"left_children":[1,3,5,7,9,11,13,-1,-1,-1,-1,-1,-1,-1,-1],"loss_changes":[8.804617E2,1.0614972E3,7.605615E1,4.586094E2,8.685206E2,3.0187988E1,4.8656662E1,0E0,0E0,0E0,0E0,0E0,0E0,0E0,0E0],"parents":[2147483647,0,0,1,1,2,2,3,3,4,4,5,5,6,6],"right_children":[2,4,6,8,10,12,14,-1,-1,-1,-1,-1,-1,-1,-1],"split_conditions":[1.19624E2,1.13987E2,5.7197E1,2.809E0,4.8201E1,1.2649E1,1.25175E2,-2.4386613E-2,1.6721621E-2,8.367051E-3,6.9998324E-2,-1.1493961E-2,-8.959198E-2,3.4745634E-2,-5.205611E-2],"split_indices":[2,0,13,7,13,1,2,0,0,0,0,0,0,0,0],"split_type":[0,0,0,0,0,0,0,0,0,0,0,0,0,0,0],"sum_hessian":[2.610521E4,2.4417918E4,1.6872936E3,1.4036825E4,1.0381094E4,1.0993927E3,5.879008E2,1.0360774E4,3.6760505E3,6.981809E3,3.3992842E3,5.228004E1,1.0471127E3,7.311504E1,5.1478577E2],"tree_param":{"num_deleted":"0","num_feature":"30","num_nodes":"15","size_leaf_vector":"1"}},{"base_weights":[-6.1265035E-3,6.966349E-2,-4.0040836E-1,-1.0340305E-1,3.2974818E-1,-4.903947E-1,5.3484076E-1,-2.1512302E-2,1.6299203E-2,7.329537E-2,1.208029E-2,8.566122E-3,-6.450364E-2,1.5477772E-1,-7.783245E-3],"categories":[],"categories_nodes":[],"categories_segments":[],"categories_sizes":[],"default_left":[0,0,0,0,0,0,0,0,0,0,0,0,0,0,0],"id":26,"left_children":[1,3,5,7,9,11,13,-1,-1,-1,-1,-1,-1,-1,-1],"loss_changes":[7.7079553E2,9.738848E2,3.5026538E2,3.8668878E2,7.2820935E2,3.380598E2,2.2695058E2,0E0,0E0,0E0,0E0,0E0,0E0,0E0,0E0],"parents":[2147483647,0,0,1,1,2,2,3,3,4,4,5,5,6,6],"right_children":[2,4,6,8,10,12,14,-1,-1,-1,-1,-1,-1,-1,-1],"split_conditions":[1.61219E2,1.16623E2,1.25441E2,2.809E0,2.392E0,7.62E-1,2.108E0,-2.1512302E-2,1.6299203E-2,7.329537E-2,1.208029E-2,8.566122E-3,-6.450364E-2,1.5477772E-1,-7.783245E-3],"split_indices":[0,0,1,7,7,10,7,0,0,0,0,0,0,0,0],"split_type":[0,0,0,0,0,0,0,0,0,0,0,0,0,0,0],"sum_hessian":[2.5792178E4,2.1634379E4,4.1577993E3,1.2990677E4,8.643702E3,3.7932974E3,3.645019E2,9.152515E3,3.8381616E3,2.949497E3,5.694205E3,8.028915E2,2.9904058E3,1.3680125E2,2.2770062E2],"tree_param":{"num_deleted":"0","num_feature":"30","num_nodes":"15","size_leaf_vector":"1"}},{"base_weights":[-3.5215644E-3,-4.2021796E-2,7.545639E-1,4.092461E-2,-3.567261E-1,9.789172E-1,-2.5371386E-2,-8.691399E-3,2.4377706E-2,-5.330011E-2,-8.81354E-3,1.65529E-2,1.0809106E-1,-7.1106836E-2,3.6353417E-2],"categories":[],"categories_nodes":[],"categories_segments":[],"categories_sizes":[],"default_left":[1,0,0,1,0,0,0,0,0,0,0,0,0,0,0],"id":27,"left_children":[1,3,5,7,9,11,13,-1,-1,-1,-1,-1,-1,-1,-1],"loss_changes":[7.465296E2,6.354185E2,2.1634009E2,4.9961038E2,2.4035382E2,7.9469666E1,7.416398E1,0E0,0E0,0E0,0E0,0E0,0E0,0E0,0E0],"parents":[2147483647,0,0,1,1,2,2,3,3,4,4,5,5,6,6],"right_children":[2,4,6,8,10,12,14,-1,-1,-1,-1,-1,-1,-1,-1],"split_conditions":[6.74377E2,7.0188E1,3E0,1.1761E2,3.396E1,5.5E-1,6.8E-1,-8.691399E-3,2.4377706E-2,-5.330011E-2,-8.81354E-3,1.65529E-2,1.0809106E-1,-7.1106836E-2,3.6353417E-2],"split_indices":[5,1,22,0,13,12,12,0,0,0,0,0,0,0,0],"split_type":[0,0,0,0,0,0,0,0,0,0,0,0,0,0,0],"sum_hessian":[2.557585E4,2.4340627E4,1.2352217E3,1.9264076E4,5.07655E3,9.5908105E2,2.761407E2,1.1817317E4,7.44676E3,3.0644075E3,2.0121425E3,1.071547E2,8.5192633E2,9.963729E1,1.765034E2],"tree_param":{"num_deleted":"0","num_feature":"30","num_nodes":"15","size_leaf_vector":"1"}},{"base_weights":[1.0475004E-3,4.1709848E-2,-6.6556793E-1,-1.3326693E-1,2.0576724E-1,-7.973935E-1,-2.983646E-1,-2.5799412E-2,1.7111402E-2,6.646223E-2,6.711031E-3,-1.0025909E-1,-7.119798E-2,-7.796327E-3,-6.01318E-2],"categories":[],"categories_nodes":[],"categories_segments":[],"categories_sizes":[],"default_left":[0,1,0,0,0,0,0,0,0,0,0,0,0,0,0],"id":28,"left_children":[1,3,5,7,9,11,13,-1,-1,-1,-1,-1,-1,-1,-1],"loss_changes":[6.8611523E2,6.8486926E2,7.020502E1,4.383405E2,7.8335254E2,1.8043518E1,2.5728024E1,0E0,0E0,0E0,0E0,0E0,0E0,0E0,0E0],"parents":[2147483647,0,0,1,1,2,2,3,3,4,4,5,5,6,6],"right_children":[2,4,6,8,10,12,14,-1,-1,-1,-1,-1,-1,-1,-1],"split_conditions":[1.21222E2,1.07831E2,6.7188E1,2.738E0,2.087E0,1.04871E2,6.3931E1,-2.5799412E-2,1.7111402E-2,6.646223E-2,6.711031E-3,-1.0025909E-1,-7.119798E-2,-7.796327E-3,-6.01318E-2],"split_indices":[2,0,13,7,7,9,29,0,0,0,0,0,0,0,0],"split_type":[0,0,0,0,0,0,0,0,0,0,0,0,0,0,0],"sum_hessian":[2.5310135E4,2.3855904E4,1.45423E3,1.1543876E4,1.2312028E4,1.0692125E3,3.8501752E2,8.1885703E3,3.3553057E3,2.856214E3,9.455814E3,3.1109695E2,7.5811554E2,2.2360222E2,1.614153E2],"tree_param":{"num_deleted":"0","num_feature":"30","num_nodes":"15","size_leaf_vector":"1"}},{"base_weights":[-7.8288506E-4,-3.6437154E-2,6.868083E-1,7.5487653E-3,-5.5270416E-1,2.0478505E-1,9.2466915E-1,-2.492659E-2,1.0216816E-2,-7.692177E-2,-2.6272932E-2,5.797851E-2,-1.2017142E-2,6.488305E-2,1.17191754E-1],"categories":[],"categories_nodes":[],"categories_segments":[],"categories_sizes":[],"default_left":[1,0,0,0,0,0,0,0,0,0,0,0,0,0,0],"id":29,"left_children":[1,3,5,7,9,11,13,-1,-1,-1,-1,-1,-1,-1,-1],"loss_changes":[6.1531354E2,5.41864E2,1.4167438E2,5.343543E2,1.1741675E2,5.004547E1,5.5723633E1,0E0,0E0,0E0,0E0,0E0,0E0,0E0,0E0],"parents":[2147483647,0,0,1,1,2,2,3,3,4,4,5,5,6,6],"right_children":[2,4,6,8,10,12,14,-1,-1,-1,-1,-1,-1,-1,-1],"split_conditions":[4.374E0,1.13965E2,7.9E-1,2.6208E1,5.1695E1,9.484E0,8.80068E2,-2.492659E-2,1.0216816E-2,-7.692177E-2,-2.6272932E-2,5.797851E-2,-1.2017142E-2,6.488305E-2,1.17191754E-1],"split_indices":[4,2,12,13,13,8,5,0,0,0,0,0,0,0,0],"split_type":[0,0,0,0,0,0,0,0,0,0,0,0,0,0,0],"sum_hessian":[2.5096879E4,2.3860562E4,1.2363157E3,2.1988158E4,1.8724043E3,4.0911273E2,8.272029E2,5.9196074E3,1.6068551E4,1.0710433E3,8.0136096E2,1.8956749E2,2.1954524E2,3.9270844E2,4.3449445E2],"tree_param":{"num_deleted":"0","num_feature":"30","num_nodes":"15","size_leaf_vector":"1"}},{"base_weights":[1.063569E-3,3.504693E-2,-6.42736E-1,-9.7027294E-2,2.0875552E-1,-7.853258E-1,-2.887053E-1,-1.2017496E-2,9.689301E-2,-4.115629E-3,4.6370823E-2,-2.5813496E-2,-8.53678E-2,3.9136126E-3,-5.244949E-2],"categories":[],"categories_nodes":[],"categories_segments":[],"categories_sizes":[],"default_left":[0,1,0,0,0,0,1,0,0,0,0,0,0,0,0],"id":30,"left_children":[1,3,5,7,9,11,13,-1,-1,-1,-1,-1,-1,-1,-1],"loss_changes":[5.4510095E2,5.4296893E2,6.28349E1,3.3185568E2,6.51324E2,3.1848877E1,2.7868803E1,0E0,0E0,0E0,0E0,0E0,0E0,0E0,0E0],"parents":[2147483647,0,0,1,1,2,2,3,3,4,4,5,5,6,6],"right_children":[2,4,6,8,10,12,14,-1,-1,-1,-1,-1,-1,-1,-1],"split_conditions":[1.23113E2,1.13687E2,6.7188E1,1.14314E2,3.9155E1,2.6564E1,-2.464E0,-1.2017496E-2,9.689301E-2,-4.115629E-3,4.6370823E-2,-2.5813496E-2,-8.53678E-2,3.9136126E-3,-5.244949E-2],"split_indices":[2,0,13,1,13,1,24,0,0,0,0,0,0,0,0],"split_type":[0,0,0,0,0,0,0,0,0,0,0,0,0,0,0],"sum_hessian":[2.4912914E4,2.3664703E4,1.2482106E3,1.3443655E4,1.0221048E4,8.889557E2,3.5925485E2,1.3158795E4,2.8486093E2,5.161974E3,5.0590737E3,1.0257624E2,7.8637946E2,1.5063972E2,2.0861513E2],"tree_param":{"num_deleted":"0","num_feature":"30","num_nodes":"15","size_leaf_vector":"1"}},{"base_weights":[-1.7870058E-3,-1.3348469E-1,1.7150605E-1,9.059248E-2,-3.1805518E-1,9.495191E-2,5.573495E-1,2.9648587E-2,-1.790597E-2,-3.3629086E-2,9.1281846E-2,1.8753838E-2,-2.570442E-2,-1.6504785E-2,7.049976E-2],"categories":[],"categories_nodes":[],"categories_segments":[],"categories_sizes":[],"default_left":[0,0,1,1,0,1,0,0,0,0,0,0,0,0,0],"id":31,"left_children":[1,3,5,7,9,11,13,-1,-1,-1,-1,-1,-1,-1,-1],"loss_changes":[5.643124E2,5.810802E2,3.1532535E2,3.5239755E2,1.7322919E2,2.904449E2,1.8863696E2,0E0,0E0,0E0,0E0,0E0,0E0,0E0,0E0],"parents":[2147483647,0,0,1,1,2,2,3,3,4,4,5,5,6,6],"right_children":[2,4,6,8,10,12,14,-1,-1,-1,-1,-1,-1,-1,-1],"split_conditions":[8.65E-1,1.152E0,2.988E0,-2.286E0,1.5243E2,1.0502E2,5.07E-1,2.9648587E-2,-1.790597E-2,-3.3629086E-2,9.1281846E-2,1.8753838E-2,-2.570442E-2,-1.6504785E-2,7.049976E-2],"split_indices":[11,10,4,24,1,5,12,0,0,0,0,0,0,0,0],"split_type":[0,0,0,0,0,0,0,0,0,0,0,0,0,0,0],"sum_hessian":[2.4724365E4,1.4048298E4,1.0676067E4,6.345308E3,7.7029897E3,8.909587E3,1.7664806E3,3.5979712E3,2.747337E3,7.5912505E3,1.1173925E2,7.0544927E3,1.8550945E3,2.9975467E2,1.466726E3],"tree_param":{"num_deleted":"0","num_feature":"30","num_nodes":"15","size_leaf_vector":"1"}},{"base_weights":[-3.8137585E-3,-5.5466674E-2,3.99963E-1,-3.1328663E-1,1.8370084E-2,-1.1784697E-1,6.0326326E-1,-1.9207347E-2,-7.454505E-2,8.3283065E-3,-3.3004604E-2,-6.35601E-2,7.928996E-3,3.201523E-2,8.1457496E-2],"categories":[],"categories_nodes":[],"categories_segments":[],"categories_sizes":[],"default_left":[1,0,0,0,1,1,0,0,0,0,0,0,0,0,0],"id":32,"left_children":[1,3,5,7,9,11,13,-1,-1,-1,-1,-1,-1,-1,-1],"loss_changes":[5.114733E2,4.1390506E2,2.9286957E2,2.5342374E2,3.8231253E2,8.017232E1,1.1923303E2,0E0,0E0,0E0,0E0,0E0,0E0,0E0,0E0],"parents":[2147483647,0,0,1,1,2,2,3,3,4,4,5,5,6,6],"right_children":[2,4,6,8,10,12,14,-1,-1,-1,-1,-1,-1,-1,-1],"split_conditions":[7.27E-1,2.5161E1,2.479E0,1.39402E2,1.0502E2,9.5839E1,1.104E2,-1.9207347E-2,-7.454505E-2,8.3283065E-3,-3.3004604E-2,-6.35601E-2,7.928996E-3,3.201523E-2,8.1457496E-2],"split_indices":[12,13,4,0,5,0,0,0,0,0,0,0,0,0,0],"split_type":[0,0,0,0,0,0,0,0,0,0,0,0,0,0,0],"sum_hessian":[2.4521684E4,2.1741303E4,2.7803813E3,4.839546E3,1.6901756E4,7.8398236E2,1.996399E3,3.780607E3,1.0589388E3,1.4247992E4,2.6537651E3,2.1557611E2,5.6840625E2,8.543175E2,1.1420814E3],"tree_param":{"num_deleted":"0","num_feature":"30","num_nodes":"15","size_leaf_vector":"1"}},{"base_weights":[-3.2521922E-3,4.9054214E-1,-4.2305578E-2,-1.2471997E-1,6.351034E-1,-8.402983E-2,4.9835807E-1,-4.767806E-2,7.691248E-3,3.9287735E-2,9.108626E-2,-9.1685326E-4,-3.4197252E-2,1.1142027E-2,6.355523E-2],"categories":[],"categories_nodes":[],"categories_segments":[],"categories_sizes":[],"default_left":[0,0,1,0,0,0,0,0,0,0,0,0,0,0,0],"id":33,"left_children":[1,3,5,7,9,11,13,-1,-1,-1,-1,-1,-1,-1,-1],"loss_changes":[4.7271353E2,1.5987341E2,5.124908E2,2.436021E1,9.6826416E1,4.0723444E2,8.633176E1,0E0,0E0,0E0,0E0,0E0,0E0,0E0,0E0],"parents":[2147483647,0,0,1,1,2,2,3,3,4,4,5,5,6,6],"right_children":[2,4,6,8,10,12,14,-1,-1,-1,-1,-1,-1,-1,-1],"split_conditions":[-2.286E0,6.6E-1,2.385E0,1.0471E2,5.588E1,6.7485E1,4.472E0,-4.767806E-2,7.691248E-3,3.9287735E-2,9.108626E-2,-9.1685326E-4,-3.4197252E-2,1.1142027E-2,6.355523E-2],"split_indices":[24,12,24,0,23,1,4,0,0,0,0,0,0,0,0],"split_type":[0,0,0,0,0,0,0,0,0,0,0,0,0,0,0],"sum_hessian":[2.4510744E4,1.79559E3,2.2715154E4,3.4164853E2,1.4539414E3,2.1088547E4,1.626607E3,1.2391754E2,2.17731E2,7.7532385E2,6.7861755E2,1.6345668E4,4.742879E3,4.26247E2,1.20036E3],"tree_param":{"num_deleted":"0","num_feature":"30","num_nodes":"15","size_leaf_vector":"1"}},{"base_weights":[-7.0810905E-3,4.034408E-2,-4.1537455E-1,-7.80486E-2,2.7430522E-1,-2.3244645E-1,-7.9306394E-1,-1.4578469E-2,2.3209972E-2,1.1033791E-4,4.8300665E-2,4.070216E-3,-3.8549274E-2,-1.7873516E-2,-9.031599E-2],"categories":[],"categories_nodes":[],"categories_segments":[],"categories_sizes":[],"default_left":[0,1,0,0,0,0,0,0,0,0,0,0,0,0,0],"id":34,"left_children":[1,3,5,7,9,11,13,-1,-1,-1,-1,-1,-1,-1,-1],"loss_changes":[4.719735E2,6.049209E2,1.7506775E2,3.0467755E2,4.183907E2,7.151427E1,5.579071E1,0E0,0E0,0E0,0E0,0E0,0E0,0E0,0E0],"parents":[2147483647,0,0,1,1,2,2,3,3,4,4,5,5,6,6],"right_children":[2,4,6,8,10,12,14,-1,-1,-1,-1,-1,-1,-1,-1],"split_conditions":[1.07469E2,1.17954E2,3.203E0,2.969E0,1.28824E2,2.54E1,2.1437E1,-1.4578469E-2,2.3209972E-2,1.1033791E-4,4.8300665E-2,4.070216E-3,-3.8549274E-2,-1.7873516E-2,-9.031599E-2],"split_indices":[2,0,7,7,9,19,1,0,0,0,0,0,0,0,0],"split_type":[0,0,0,0,0,0,0,0,0,0,0,0,0,0,0],"sum_hessian":[2.4372668E4,2.183709E4,2.5355776E3,1.4500158E4,7.3369307E3,1.7093134E3,8.2626434E2,1.1901429E4,2.5987302E3,3.1778938E3,4.1590366E3,6.140768E2,1.0952366E3,1.2597198E2,7.0029236E2],"tree_param":{"num_deleted":"0","num_feature":"30","num_nodes":"15","size_leaf_vector":"1"}},{"base_weights":[1.3453162E-3,4.7088135E-2,-3.8060215E-1,-3.028674E-1,1.1604178E-1,-7.9975975E-1,-3.117275E-1,-2.3933854E-2,-7.617621E-2,6.513892E-2,8.268981E-3,-2.8108144E-2,-9.576024E-2,-3.560187E-2,2.6910035E-2],"categories":[],"categories_nodes":[],"categories_segments":[],"categories_sizes":[],"default_left":[0,0,0,0,0,0,1,0,0,0,0,0,0,0,0],"id":35,"left_children":[1,3,5,7,9,11,13,-1,-1,-1,-1,-1,-1,-1,-1],"loss_changes":[4.2160175E2,5.200547E2,7.425925E1,1.0323779E2,3.2139886E2,2.9498215E1,5.716269E1,0E0,0E0,0E0,0E0,0E0,0E0,0E0,0E0],"parents":[2147483647,0,0,1,1,2,2,3,3,4,4,5,5,6,6],"right_children":[2,4,6,8,10,12,14,-1,-1,-1,-1,-1,-1,-1,-1],"split_conditions":[1.679E0,-1.474E0,2.44E-1,-8.1E-2,-2.464E0,2.9097E1,2.772E0,-2.3933854E-2,-7.617621E-2,6.513892E-2,8.268981E-3,-2.8108144E-2,-9.576024E-2,-3.560187E-2,2.6910035E-2],"split_indices":[17,17,14,14,24,1,24,0,0,0,0,0,0,0,0],"split_type":[0,0,0,0,0,0,0,0,0,0,0,0,0,0,0],"sum_hessian":[2.4129004E4,2.1549113E4,2.5798896E3,3.546487E3,1.8002627E4,3.6259515E2,2.2172947E3,3.1165562E3,4.2993094E2,1.054696E3,1.694793E4,8.5247765E1,2.7734738E2,2.0605535E3,1.5674104E2],"tree_param":{"num_deleted":"0","num_feature":"30","num_nodes":"15","size_leaf_vector":"1"}},{"base_weights":[-1.8153223E-3,-1.0644133E-1,1.5285993E-1,1.6739137E-1,-2.1027532E-1,2.1221235E-1,-2.579087E-1,7.859143E-2,-4.999894E-4,-7.818021E-2,-1.63374E-2,6.785622E-4,4.1804325E-2,-6.283476E-2,-1.3043486E-2],"categories":[],"categories_nodes":[],"categories_segments":[],"categories_sizes":[],"default_left":[0,0,0,0,0,1,1,0,0,0,0,0,0,0,0],"id":36,"left_children":[1,3,5,7,9,11,13,-1,-1,-1,-1,-1,-1,-1,-1],"loss_changes":[3.9109427E2,4.0991998E2,2.3778914E2,4.226724E2,2.8006287E2,3.602764E2,5.8072357E1,0E0,0E0,0E0,0E0,0E0,0E0,0E0,0E0],"parents":[2147483647,0,0,1,1,2,2,3,3,4,4,5,5,6,6],"right_children":[2,4,6,8,10,12,14,-1,-1,-1,-1,-1,-1,-1,-1],"split_conditions":[9.8E-1,2.3749E1,3E0,7.28E0,4.9095E1,5.7529E1,9.5474E1,7.859143E-2,-4.999894E-4,-7.818021E-2,-1.63374E-2,6.785622E-4,4.1804325E-2,-6.283476E-2,-1.3043486E-2],"split_indices":[11,1,22,3,2,23,0,0,0,0,0,0,0,0,0],"split_type":[0,0,0,0,0,0,0,0,0,0,0,0,0,0,0],"sum_hessian":[2.41649E4,1.441474E4,9.75016E3,3.962956E3,1.0451784E4,8.519632E3,1.230528E3,8.630083E2,3.0999478E3,7.914706E2,9.660313E3,4.264519E3,4.255113E3,3.1402945E2,9.164985E2],"tree_param":{"num_deleted":"0","num_feature":"30","num_nodes":"15","size_leaf_vector":"1"}},{"base_weights":[3.708435E-3,-1.9219827E-2,7.117057E-1,1.9839484E-2,-3.9362612E-1,9.2275566E-1,-1.699685E-2,6.5350146E-3,-2.8639568E-2,-7.363459E-2,-1.599054E-2,8.586828E-2,1.99226E-1,-3.9995763E-2,4.4957817E-2],"categories":[],"categories_nodes":[],"categories_segments":[],"categories_sizes":[],"default_left":[1,0,0,0,0,0,0,0,0,0,0,0,0,0,0],"id":37,"left_children":[1,3,5,7,9,11,13,-1,-1,-1,-1,-1,-1,-1,-1],"loss_changes":[3.8936273E2,3.397745E2,1.1572952E2,2.9324615E2,1.756925E2,3.82706E1,3.0547634E1,0E0,0E0,0E0,0E0,0E0,0E0,0E0,0E0],"parents":[2147483647,0,0,1,1,2,2,3,3,4,4,5,5,6,6],"right_children":[2,4,6,8,10,12,14,-1,-1,-1,-1,-1,-1,-1,-1],"split_conditions":[8.17002E2,1.09088E2,3E0,1.536E0,4.1743E1,7.0218E1,8.53E-1,6.5350146E-3,-2.8639568E-2,-7.363459E-2,-1.599054E-2,8.586828E-2,1.99226E-1,-3.9995763E-2,4.4957817E-2],"split_indices":[5,2,22,17,13,8,12,0,0,0,0,0,0,0,0],"split_type":[0,0,0,0,0,0,0,0,0,0,0,0,0,0,0],"sum_hessian":[2.3983818E4,2.3232416E4,7.514014E2,2.103855E4,2.1938647E3,5.824449E2,1.6895654E2,1.8317162E4,2.72139E3,8.886416E2,1.305223E3,5.512245E2,3.122042E1,9.287132E1,7.608521E1],"tree_param":{"num_deleted":"0","num_feature":"30","num_nodes":"15","size_leaf_vector":"1"}},{"base_weights":[-6.4097694E-4,5.1138017E-2,-2.7580988E-1,-2.6923814E-1,1.2085802E-1,-3.2283002E-1,2.0824781E-1,2.5547802E-2,-3.183509E-2,1.6244983E-2,-2.6768772E-2,-8.029978E-2,-2.8008321E-2,-1.0887987E-2,4.891562E-2],"categories":[],"categories_nodes":[],"categories_segments":[],"categories_sizes":[],"default_left":[0,0,1,0,0,0,1,0,0,0,0,0,0,0,0],"id":38,"left_children":[1,3,5,7,9,11,13,-1,-1,-1,-1,-1,-1,-1,-1],"loss_changes":[3.4050232E2,4.4930078E2,8.621088E1,9.2728E1,2.6700256E2,7.059039E1,2.9958956E1,0E0,0E0,0E0,0E0,0E0,0E0,0E0,0E0],"parents":[2147483647,0,0,1,1,2,2,3,3,4,4,5,5,6,6],"right_children":[2,4,6,8,10,12,14,-1,-1,-1,-1,-1,-1,-1,-1],"split_conditions":[1.345E0,-1.441E0,2.537E0,-2.539E0,3E0,-2.25E-1,1.09077E2,2.5547802E-2,-3.183509E-2,1.6244983E-2,-2.6768772E-2,-8.029978E-2,-2.8008321E-2,-1.0887987E-2,4.891562E-2],"split_indices":[17,17,24,24,22,14,0,0,0,0,0,0,0,0,0],"split_type":[0,0,0,0,0,0,0,0,0,0,0,0,0,0,0],"sum_hessian":[2.3896316E4,2.0112523E4,3.7837932E3,3.5941023E3,1.651842E4,3.4490903E3,3.3470285E2,3.072515E2,3.2868508E3,1.4921711E4,1.59671E3,2.8049954E2,3.1685908E3,1.5750366E2,1.771992E2],"tree_param":{"num_deleted":"0","num_feature":"30","num_nodes":"15","size_leaf_vector":"1"}},{"base_weights":[-1.7209722E-3,-3.3099465E-2,4.4624048E-1,4.0458697E-1,-7.043113E-2,-4.377597E-2,5.4992783E-1,-6.752527E-3,5.6460883E-2,-1.1195083E-2,2.9784227E-2,5.366039E-2,-2.3712683E-2,5.869152E-2,-8.0946565E-2],"categories":[],"categories_nodes":[],"categories_segments":[],"categories_sizes":[],"default_left":[1,0,0,0,0,0,0,0,0,0,0,0,0,0,0],"id":39,"left_children":[1,3,5,7,9,11,13,-1,-1,-1,-1,-1,-1,-1,-1],"loss_changes":[3.3550653E2,3.64501E2,7.941177E1,1.3248834E2,3.143155E2,3.0853006E1,6.532086E1,0E0,0E0,0E0,0E0,0E0,0E0,0E0,0E0],"parents":[2147483647,0,0,1,1,2,2,3,3,4,4,5,5,6,6],"right_children":[2,4,6,8,10,12,14,-1,-1,-1,-1,-1,-1,-1,-1],"split_conditions":[2.385E0,-2.286E0,3.3074E2,8.29E-1,7.6791E1,8.4722E1,1.325E2,-6.752527E-3,5.6460883E-2,-1.1195083E-2,2.9784227E-2,5.366039E-2,-2.3712683E-2,5.869152E-2,-8.0946565E-2],"split_indices":[24,24,5,12,19,5,2,0,0,0,0,0,0,0,0],"split_type":[0,0,0,0,0,0,0,0,0,0,0,0,0,0,0],"sum_hessian":[2.3866621E4,2.2305133E4,1.5614883E3,1.7521869E3,2.0552945E4,2.7280682E2,1.2886815E3,4.437044E2,1.3084825E3,1.8471174E4,2.081772E3,6.772923E1,2.050776E2,1.2551E3,3.3581463E1],"tree_param":{"num_deleted":"0","num_feature":"30","num_nodes":"15","size_leaf_vector":"1"}},{"base_weights":[5.761873E-4,2.776511E-2,-5.023613E-1,-7.6378696E-2,2.1047758E-1,-6.108119E-1,-1.676856E-1,-5.8841746E-2,-4.232285E-3,7.7376686E-2,1.1083207E-2,-2.1542896E-2,-6.732907E-2,2.8932974E-2,-3.6114905E-2],"categories":[],"categories_nodes":[],"categories_segments":[],"categories_sizes":[],"default_left":[1,1,0,0,0,0,0,0,0,0,0,0,0,0,0],"id":40,"left_children":[1,3,5,7,9,11,13,-1,-1,-1,-1,-1,-1,-1,-1],"loss_changes":[3.259886E2,4.303763E2,4.427533E1,2.5119327E2,4.608103E2,2.2657227E1,2.668352E1,0E0,0E0,0E0,0E0,0E0,0E0,0E0,0E0],"parents":[2147483647,0,0,1,1,2,2,3,3,4,4,5,5,6,6],"right_children":[2,4,6,8,10,12,14,-1,-1,-1,-1,-1,-1,-1,-1],"split_conditions":[1.72472E2,1.17264E2,7.0424E1,7.3544E1,1.887E0,1.7026E1,1.97719E2,-5.8841746E-2,-4.232285E-3,7.7376686E-2,1.1083207E-2,-2.1542896E-2,-6.732907E-2,2.8932974E-2,-3.6114905E-2],"split_indices":[0,0,13,0,7,1,0,0,0,0,0,0,0,0,0],"split_type":[0,0,0,0,0,0,0,0,0,0,0,0,0,0,0],"sum_hessian":[2.3837438E4,2.261577E4,1.2216693E3,1.4405435E4,8.210335E3,9.220551E2,2.9961414E2,8.9734424E2,1.350809E4,1.2330758E3,6.977259E3,1.2642865E2,7.9562646E2,8.896296E1,2.1065118E2],"tree_param":{"num_deleted":"0","num_feature":"30","num_nodes":"15","size_leaf_vector":"1"}},{"base_weights":[9.88924E-4,2.0642865E-2,-6.73787E-1,-5.970277E-1,4.172631E-2,-6.497759E-2,-8.352536E-1,-6.955334E-2,6.530055E-2,5.6872528E-2,1.9412952E-3,4.5206077E-2,-1.7912034E-2,4.6972E-2,-8.5511796E-2],"categories":[],"categories_nodes":[],"categories_segments":[],"categories_sizes":[],"default_left":[0,0,0,0,0,0,0,0,0,0,0,0,0,0,0],"id":41,"left_children":[1,3,5,7,9,11,13,-1,-1,-1,-1,-1,-1,-1,-1],"loss_changes":[3.1423163E2,2.9985095E2,6.5867004E1,9.403757E1,2.6179947E2,8.440978E0,1.4139008E1,0E0,0E0,0E0,0E0,0E0,0E0,0E0,0E0],"parents":[2147483647,0,0,1,1,2,2,3,3,4,4,5,5,6,6],"right_children":[2,4,6,8,10,12,14,-1,-1,-1,-1,-1,-1,-1,-1],"split_conditions":[3.465E0,7.2079E1,2.3374E1,2.694E0,-4.547E0,1.25122E2,-3.125E0,-6.955334E-2,6.530055E-2,5.6872528E-2,1.9412952E-3,4.5206077E-2,-1.7912034E-2,4.6972E-2,-8.5511796E-2],"split_indices":[7,0,1,7,6,0,24,0,0,0,0,0,0,0,0],"split_type":[0,0,0,0,0,0,0,0,0,0,0,0,0,0,0],"sum_hessian":[2.3692072E4,2.3022475E4,6.695974E2,7.5900433E2,2.226347E4,1.4065616E2,5.289413E2,7.0397314E2,5.5031216E1,9.0335913E2,2.1360111E4,2.4900873E1,1.1575529E2,7.591259E0,5.2135004E2],"tree_param":{"num_deleted":"0","num_feature":"30","num_nodes":"15","size_leaf_vector":"1"}},{"base_weights":[1.876678E-3,3.8010746E-2,-3.4988868E-1,-1.3206534E-2,3.985054E-1,1.8839931E-1,-4.5868143E-1,1.271085E-2,-1.3286418E-2,3.7407395E-3,5.7700515E-2,-4.7720216E-2,3.368551E-2,-5.8358025E-2,-2.4266528E-2],"categories":[],"categories_nodes":[],"categories_segments":[],"categories_sizes":[],"default_left":[0,1,0,0,0,1,0,0,0,0,0,0,0,0,0],"id":42,"left_children":[1,3,5,7,9,11,13,-1,-1,-1,-1,-1,-1,-1,-1],"loss_changes":[3.005626E2,3.9593066E2,1.2908282E2,3.1527805E2,1.7192328E2,3.6825294E1,4.9304565E1,0E0,0E0,0E0,0E0,0E0,0E0,0E0,0E0],"parents":[2147483647,0,0,1,1,2,2,3,3,4,4,5,5,6,6],"right_children":[2,4,6,8,10,12,14,-1,-1,-1,-1,-1,-1,-1,-1],"split_conditions":[3E0,4.64E-1,9.7341E1,1.14E0,2.6261E2,9.2187E1,1.37058E2,1.271085E-2,-1.3286418E-2,3.7407395E-3,5.7700515E-2,-4.7720216E-2,3.368551E-2,-5.8358025E-2,-2.4266528E-2],"split_indices":[22,12,5,10,5,0,3,0,0,0,0,0,0,0,0],"split_type":[0,0,0,0,0,0,0,0,0,0,0,0,0,0,0],"sum_hessian":[2.3644355E4,2.1442617E4,2.2017383E3,1.8775982E4,2.6666345E3,3.7005212E2,1.8316862E3,8.641994E3,1.0133988E4,8.825269E2,1.7841075E3,6.708082E1,3.0297128E2,1.1595449E3,6.7214124E2],"tree_param":{"num_deleted":"0","num_feature":"30","num_nodes":"15","size_leaf_vector":"1"}},{"base_weights":[-2.6618128E-4,3.5540488E-2,-3.2951635E-1,-5.6327987E-2,2.236203E-1,-5.9150803E-1,-3.0927561E-2,-1.3077787E-2,1.6245086E-2,-1.5775364E-2,3.6421344E-2,-7.96665E-2,-4.2528246E-2,2.7515797E-2,-3.601378E-2],"categories":[],"categories_nodes":[],"categories_segments":[],"categories_sizes":[],"default_left":[0,1,0,0,0,0,0,0,0,0,0,0,0,0,0],"id":43,"left_children":[1,3,5,7,9,11,13,-1,-1,-1,-1,-1,-1,-1,-1],"loss_changes":[2.771792E2,3.664038E2,1.803811E2,2.320781E2,3.7318106E2,4.154767E1,1.0880789E2,0E0,0E0,0E0,0E0,0E0,0E0,0E0,0E0],"parents":[2147483647,0,0,1,1,2,2,3,3,4,4,5,5,6,6],"right_children":[2,4,6,8,10,12,14,-1,-1,-1,-1,-1,-1,-1,-1],"split_conditions":[1.07469E2,1.18295E2,4.9654E1,2.858E0,2.9421E1,5.4549E1,1.25175E2,-1.3077787E-2,1.6245086E-2,-1.5775364E-2,3.6421344E-2,-7.96665E-2,-4.2528246E-2,2.7515797E-2,-3.601378E-2],"split_indices":[2,0,13,7,13,16,2,0,0,0,0,0,0,0,0],"split_type":[0,0,0,0,0,0,0,0,0,0,0,0,0,0,0],"sum_hessian":[2.3508984E4,2.1203904E4,2.3050786E3,1.4246054E4,6.9578516E3,1.2272595E3,1.0778191E3,1.0629323E4,3.6167297E3,1.8740819E3,5.08377E3,5.476063E2,6.7965326E2,5.586109E2,5.1920825E2],"tree_param":{"num_deleted":"0","num_feature":"30","num_nodes":"15","size_leaf_vector":"1"}},{"base_weights":[-6.417838E-3,-3.4811956E-1,2.5542824E-2,-3.9813015E-1,1.0118526E-1,8.1040554E-2,-2.3461345E-1,-4.5034796E-2,-3.0646543E-3,-3.7491787E-2,3.341781E-2,3.8428928E-3,3.7455246E-2,-2.8804455E-2,1.2242601E-2],"categories":[],"categories_nodes":[],"categories_segments":[],"categories_sizes":[],"default_left":[0,1,0,0,0,1,1,0,0,0,0,0,0,0,0],"id":44,"left_children":[1,3,5,7,9,11,13,-1,-1,-1,-1,-1,-1,-1,-1],"loss_changes":[2.5514752E2,4.4942505E1,3.0848657E2,3.4495483E1,2.24159E1,2.2022505E2,7.169974E1,0E0,0E0,0E0,0E0,0E0,0E0,0E0,0E0],"parents":[2147483647,0,0,1,1,2,2,3,3,4,4,5,5,6,6],"right_children":[2,4,6,8,10,12,14,-1,-1,-1,-1,-1,-1,-1,-1],"split_conditions":[-1.807E0,4.19E-1,1.328E0,5.3957E1,1.01881E2,1.598E0,3.63E-1,-4.5034796E-2,-3.0646543E-3,-3.7491787E-2,3.341781E-2,3.8428928E-3,3.7455246E-2,-2.8804455E-2,1.2242601E-2],"split_indices":[17,12,17,13,0,24,12,0,0,0,0,0,0,0,0],"split_type":[0,0,0,0,0,0,0,0,0,0,0,0,0,0,0],"sum_hessian":[2.3361176E4,1.9973176E3,2.1363857E4,1.7973721E3,1.9994554E2,1.760827E4,3.7555884E3,1.5735519E3,2.2382025E2,6.549741E1,1.3444814E2,1.5376991E4,2.231278E3,3.2668901E3,4.8869827E2],"tree_param":{"num_deleted":"0","num_feature":"30","num_nodes":"15","size_leaf_vector":"1"}},{"base_weights":[-3.3086012E-3,-3.0941717E-2,3.887622E-1,3.3237872E-1,-6.764572E-2,3.493438E-1,1.4527396E0,-2.0694185E-2,4.2906474E-2,-3.4601003E-2,-2.3823637E-3,2.7777485E-3,4.89631E-2,1.9760185E-1,-3.5447795E-2],"categories":[],"categories_nodes":[],"categories_segments":[],"categories_sizes":[],"default_left":[1,0,0,0,0,0,0,0,0,0,0,0,0,0,0],"id":45,"left_children":[1,3,5,7,9,11,13,-1,-1,-1,-1,-1,-1,-1,-1],"loss_changes":[2.5244144E2,2.9028357E2,6.3833008E1,1.0423891E2,2.4115643E2,6.6779144E1,5.2229065E1,0E0,0E0,0E0,0E0,0E0,0E0,0E0,0E0],"parents":[2147483647,0,0,1,1,2,2,3,3,4,4,5,5,6,6],"right_children":[2,4,6,8,10,12,14,-1,-1,-1,-1,-1,-1,-1,-1],"split_conditions":[2.385E0,-2.13E0,7.8955E1,4.42E-1,4.5788E1,8.02738E2,3.54236E2,-2.0694185E-2,4.2906474E-2,-3.4601003E-2,-2.3823637E-3,2.7777485E-3,4.89631E-2,1.9760185E-1,-3.5447795E-2],"split_indices":[24,24,8,12,23,5,21,0,0,0,0,0,0,0,0],"split_type":[0,0,0,0,0,0,0,0,0,0,0,0,0,0,0],"sum_hessian":[2.3298445E4,2.1765348E4,1.5330988E3,1.9963273E3,1.976902E4,1.4796102E3,5.348848E1,3.0330927E2,1.6930181E3,2.6879392E3,1.708108E4,4.497929E2,1.0298174E3,4.140599E1,1.2082489E1],"tree_param":{"num_deleted":"0","num_feature":"30","num_nodes":"15","size_leaf_vector":"1"}},{"base_weights":[-2.0579214E-4,3.2366604E-2,-3.162448E-1,-1.5925813E-2,3.58644E-1,1.5480316E-1,-4.0607613E-1,-2.771646E-3,1.2932944E-1,-1.5183033E-2,4.7984034E-2,2.9844796E-2,-5.8535106E-2,-5.7055753E-2,-2.2640934E-2],"categories":[],"categories_nodes":[],"categories_segments":[],"categories_sizes":[],"default_left":[0,1,0,0,0,0,1,0,0,0,0,0,0,0,0],"id":46,"left_children":[1,3,5,7,9,11,13,-1,-1,-1,-1,-1,-1,-1,-1],"loss_changes":[2.3970287E2,3.3262543E2,9.2125565E1,2.838991E2,1.6845587E2,3.7299385E1,5.387619E1,0E0,0E0,0E0,0E0,0E0,0E0,0E0,0E0],"parents":[2147483647,0,0,1,1,2,2,3,3,4,4,5,5,6,6],"right_children":[2,4,6,8,10,12,14,-1,-1,-1,-1,-1,-1,-1,-1],"split_conditions":[3E0,4.04E-1,9.6201E1,1.39969E2,9.4845E1,1.50078E2,1.08801E2,-2.771646E-3,1.2932944E-1,-1.5183033E-2,4.7984034E-2,2.9844796E-2,-5.8535106E-2,-5.7055753E-2,-2.2640934E-2],"split_indices":[22,12,5,1,0,0,0,0,0,0,0,0,0,0,0],"split_type":[0,0,0,0,0,0,0,0,0,0,0,0,0,0,0],"sum_hessian":[2.328336E4,2.11087E4,2.1746592E3,1.8388033E4,2.7206667E3,3.481811E2,1.8264781E3,1.822488E4,1.631518E2,5.219558E2,2.198711E3,2.920906E2,5.609046E1,9.5239966E2,8.7407855E2],"tree_param":{"num_deleted":"0","num_feature":"30","num_nodes":"15","size_leaf_vector":"1"}},{"base_weights":[-2.586853E-4,-5.9433866E-1,1.706346E-2,-6.715417E-1,4.199334E-1,4.3561712E-2,-3.976698E-1,-7.001335E-2,2.5278365E-3,6.6896E-2,-6.2367924E-2,7.3689385E-4,4.0682804E-2,-5.103716E-2,-9.295097E-3],"categories":[],"categories_nodes":[],"categories_segments":[],"categories_sizes":[],"default_left":[0,0,1,0,0,0,0,0,0,0,0,0,0,0,0],"id":47,"left_children":[1,3,5,7,9,11,13,-1,-1,-1,-1,-1,-1,-1,-1],"loss_changes":[2.3910216E2,5.182863E1,2.4812556E2,1.221283E1,1.2678001E1,2.7900906E2,4.6518387E1,0E0,0E0,0E0,0E0,0E0,0E0,0E0,0E0],"parents":[2147483647,0,0,1,1,2,2,3,3,4,4,5,5,6,6],"right_children":[2,4,6,8,10,12,14,-1,-1,-1,-1,-1,-1,-1,-1],"split_conditions":[7.1206E1,2.687E0,1.65958E2,6.6888E1,1.032E0,7.9468E1,6.7188E1,-7.001335E-2,2.5278365E-3,6.6896E-2,-6.2367924E-2,7.3689385E-4,4.0682804E-2,-5.103716E-2,-9.295097E-3],"split_indices":[0,7,0,8,14,19,13,0,0,0,0,0,0,0,0],"split_type":[0,0,0,0,0,0,0,0,0,0,0,0,0,0,0],"sum_hessian":[2.3232703E4,6.572814E2,2.2575422E4,6.1110406E2,4.617731E1,2.1220492E4,1.3549307E3,5.8701306E2,2.4090996E1,3.75711E1,8.606212E0,1.9298748E4,1.9217432E3,9.8861255E2,3.6631805E2],"tree_param":{"num_deleted":"0","num_feature":"30","num_nodes":"15","size_leaf_vector":"1"}},{"base_weights":[-3.8979412E-3,4.631181E-2,-2.1432497E-1,1.4296685E-1,-1.0410123E-1,-3.0443704E-1,3.3528888E-1,-8.947877E-3,2.3273375E-2,-2.1010416E-2,8.0900155E-3,-3.830416E-2,8.260257E-3,2.2617927E-1,7.488649E-3],"categories":[],"categories_nodes":[],"categories_segments":[],"categories_sizes":[],"default_left":[0,0,0,0,0,0,0,0,0,0,0,0,0,0,0],"id":48,"left_children":[1,3,5,7,9,11,13,-1,-1,-1,-1,-1,-1,-1,-1],"loss_changes":[2.4441628E2,2.7154492E2,2.2081783E2,2.3728398E2,1.4331592E2,1.16529724E2,3.1498663E2,0E0,0E0,0E0,0E0,0E0,0E0,0E0,0E0],"parents":[2147483647,0,0,1,1,2,2,3,3,4,4,5,5,6,6],"right_children":[2,4,6,8,10,12,14,-1,-1,-1,-1,-1,-1,-1,-1],"split_conditions":[7.0188E1,2.2463E1,7.4462E1,5.7529E1,1.18917E2,3.1616E1,1.5821E1,-8.947877E-3,2.3273375E-2,-2.1010416E-2,8.0900155E-3,-3.830416E-2,8.260257E-3,2.2617927E-1,7.488649E-3],"split_indices":[1,8,19,23,0,8,3,0,0,0,0,0,0,0,0],"split_type":[0,0,0,0,0,0,0,0,0,0,0,0,0,0,0],"sum_hessian":[2.3131518E4,1.8676031E4,4.455487E3,1.1369846E4,7.3061846E3,3.828268E3,6.272186E2,3.1675864E3,8.20226E3,4.644705E3,2.6614795E3,3.1820334E3,6.462345E2,7.376989E1,5.534487E2],"tree_param":{"num_deleted":"0","num_feature":"30","num_nodes":"15","size_leaf_vector":"1"}},{"base_weights":[1.7512079E-3,3.7746783E-2,-2.6614767E-1,-2.506657E-1,8.4174335E-2,-5.056647E-1,-2.0792122E-1,-2.1272589E-2,-6.8704195E-2,-2.1869875E-2,1.1785721E-2,-1.5818557E-2,-6.149097E-2,-1.0497971E-2,-4.110614E-2],"categories":[],"categories_nodes":[],"categories_segments":[],"categories_sizes":[],"default_left":[0,0,0,0,0,0,0,0,0,0,0,0,0,0,0],"id":49,"left_children":[1,3,5,7,9,11,13,-1,-1,-1,-1,-1,-1,-1,-1],"loss_changes":[2.2272447E2,2.726582E2,3.8048065E1,4.6598114E1,1.7894632E2,2.0184967E1,4.6013237E1,0E0,0E0,0E0,0E0,0E0,0E0,0E0,0E0],"parents":[2147483647,0,0,1,1,2,2,3,3,4,4,5,5,6,6],"right_children":[2,4,6,8,10,12,14,-1,-1,-1,-1,-1,-1,-1,-1],"split_conditions":[1.543E0,-1.523E0,1.586E0,9E-2,-1.585E0,1.03869E2,1.501E0,-2.1272589E-2,-6.8704195E-2,-2.1869875E-2,1.1785721E-2,-1.5818557E-2,-6.149097E-2,-1.0497971E-2,-4.110614E-2],"split_indices":[14,14,27,17,17,5,10,0,0,0,0,0,0,0,0],"split_type":[0,0,0,0,0,0,0,0,0,0,0,0,0,0,0],"sum_hessian":[2.3094553E4,2.0359814E4,2.7347373E3,2.8223987E3,1.7537416E4,5.333001E2,2.2014373E3,2.5980078E3,2.2439087E2,1.7546134E3,1.5782803E4,1.2814694E2,4.0515314E2,1.4620557E3,7.3938165E2],"tree_param":{"num_deleted":"0","num_feature":"30","num_nodes":"15","size_leaf_vector":"1"}},{"base_weights":[1.4431468E-3,-8.243359E-2,1.24392025E-1,-6.312012E-1,-4.591761E-2,1.5049082E-1,-5.733879E-1,-6.808042E-2,2.5085011E-2,1.8289182E-2,-1.2036025E-2,2.7243838E-2,1.602711E-3,-4.4626493E-2,-8.9062676E-2],"categories":[],"categories_nodes":[],"categories_segments":[],"categories_sizes":[],"default_left":[0,0,1,1,0,0,0,0,0,0,0,0,0,0,0],"id":50,"left_children":[1,3,5,7,9,11,13,-1,-1,-1,-1,-1,-1,-1,-1],"loss_changes":[2.3755351E2,2.7437305E2,1.7021255E2,3.7546906E1,2.1873276E2,1.4766873E2,1.3193985E1,0E0,0E0,0E0,0E0,0E0,0E0,0E0,0E0],"parents":[2147483647,0,0,1,1,2,2,3,3,4,4,5,5,6,6],"right_children":[2,4,6,8,10,12,14,-1,-1,-1,-1,-1,-1,-1,-1],"split_conditions":[9.8E-1,4.9529E1,1.85966E2,9.8715E1,1.9952E1,2.1595E1,7.8061E1,-6.808042E-2,2.5085011E-2,1.8289182E-2,-1.2036025E-2,2.7243838E-2,1.602711E-3,-4.4626493E-2,-8.9062676E-2],"split_indices":[11,2,0,0,1,8,19,0,0,0,0,0,0,0,0],"split_type":[0,0,0,0,0,0,0,0,0,0,0,0,0,0,0],"sum_hessian":[2.3033383E4,1.3692545E4,9.340838E3,8.532651E2,1.283928E4,9.004818E3,3.360195E2,8.080517E2,4.5213367E1,3.1514421E3,9.687838E3,4.7216465E3,4.283172E3,2.4160927E2,9.441024E1],"tree_param":{"num_deleted":"0","num_feature":"30","num_nodes":"15","size_leaf_vector":"1"}},{"base_weights":[-2.7978763E-3,-2.4009432E-1,3.8134623E-2,1.1772981E-1,-4.7079542E-1,-5.7028364E-2,1.9717392E-1,-6.7056133E-3,5.7645064E-2,-6.363322E-2,-3.2483082E-2,6.532544E-3,-2.6863078E-2,-3.0835131E-2,3.072374E-2],"categories":[],"categories_nodes":[],"categories_segments":[],"categories_sizes":[],"default_left":[0,0,0,0,0,0,0,0,0,0,0,0,0,0,0],"id":51,"left_children":[1,3,5,7,9,11,13,-1,-1,-1,-1,-1,-1,-1,-1],"loss_changes":[2.2267365E2,2.7847153E2,2.9592975E2,1.1217328E2,4.934558E1,3.1674823E2,4.0736948E2,0E0,0E0,0E0,0E0,0E0,0E0,0E0,0E0],"parents":[2147483647,0,0,1,1,2,2,3,3,4,4,5,5,6,6],"right_children":[2,4,6,8,10,12,14,-1,-1,-1,-1,-1,-1,-1,-1],"split_conditions":[4.04E-1,1.0502E2,1.36908E2,8.4996E1,1.08475E2,1.386E0,9.6161E1,-6.7056133E-3,5.7645064E-2,-6.363322E-2,-3.2483082E-2,6.532544E-3,-2.6863078E-2,-3.0835131E-2,3.072374E-2],"split_indices":[12,5,9,23,0,10,0,0,0,0,0,0,0,0,0],"split_type":[0,0,0,0,0,0,0,0,0,0,0,0,0,0,0],"sum_hessian":[2.2923055E4,3.3716794E3,1.9551375E4,1.3218857E3,2.0497937E3,1.2232538E4,7.318838E3,9.4290875E2,3.7897696E2,9.589268E2,1.090867E3,7.751258E3,4.4812803E3,1.3082408E3,6.0105967E3],"tree_param":{"num_deleted":"0","num_feature":"30","num_nodes":"15","size_leaf_vector":"1"}},{"base_weights":[-6.698407E-3,2.4537515E-2,-2.8502813E-1,-5.408592E-2,2.0373055E-1,-6.0734576E-1,-8.0330774E-2,-7.375484E-3,7.515823E-2,8.09071E-3,5.6137975E-2,1.9145256E-2,-6.8277635E-2,1.008163E-2,-3.6505215E-2],"categories":[],"categories_nodes":[],"categories_segments":[],"categories_sizes":[],"default_left":[0,1,0,0,0,0,0,0,0,0,0,0,0,0,0],"id":52,"left_children":[1,3,5,7,9,11,13,-1,-1,-1,-1,-1,-1,-1,-1],"loss_changes":[1.9856068E2,2.8932104E2,1.5199786E2,2.2623929E2,2.7505093E2,5.4054504E1,7.278932E1,0E0,0E0,0E0,0E0,0E0,0E0,0E0,0E0],"parents":[2147483647,0,0,1,1,2,2,3,3,4,4,5,5,6,6],"right_children":[2,4,6,8,10,12,14,-1,-1,-1,-1,-1,-1,-1,-1],"split_conditions":[1.06747E2,1.19564E2,4.1743E1,1.07621E2,5.1273E1,1.3627E1,1.27448E2,-7.375484E-3,7.515823E-2,8.09071E-3,5.6137975E-2,1.9145256E-2,-6.8277635E-2,1.008163E-2,-3.6505215E-2],"split_indices":[2,0,13,1,13,1,2,0,0,0,0,0,0,0,0],"split_type":[0,0,0,0,0,0,0,0,0,0,0,0,0,0,0],"sum_hessian":[2.2837314E4,2.0533793E4,2.3035203E3,1.4272315E4,6.261478E3,8.93944E2,1.4095762E3,1.3933073E4,3.392421E2,4.661766E3,1.599712E3,7.699889E1,8.1694507E2,8.6187506E2,5.477012E2],"tree_param":{"num_deleted":"0","num_feature":"30","num_nodes":"15","size_leaf_vector":"1"}},{"base_weights":[-5.063518E-3,1.2885343E-2,-5.2442116E-1,4.331731E-2,-2.7947307E-1,1.7157341E-3,-6.9861424E-1,2.034704E-3,5.4873616E-2,1.3041955E-2,-3.6306236E-2,3.4360643E-2,-1.8412054E-2,-3.834268E-2,-8.660346E-2],"categories":[],"categories_nodes":[],"categories_segments":[],"categories_sizes":[],"default_left":[0,0,0,1,0,0,0,0,0,0,0,0,0,0,0],"id":53,"left_children":[1,3,5,7,9,11,13,-1,-1,-1,-1,-1,-1,-1,-1],"loss_changes":[2.1150732E2,1.9513916E2,6.946625E1,2.3061224E2,7.089577E1,1.2104601E1,2.9715698E1,0E0,0E0,0E0,0E0,0E0,0E0,0E0,0E0],"parents":[2147483647,0,0,1,1,2,2,3,3,4,4,5,5,6,6],"right_children":[2,4,6,8,10,12,14,-1,-1,-1,-1,-1,-1,-1,-1],"split_conditions":[3.405E0,3E0,2.3374E1,5.7203E2,9.7341E1,1.34585E2,9.9356E1,2.034704E-3,5.4873616E-2,1.3041955E-2,-3.6306236E-2,3.4360643E-2,-1.8412054E-2,-3.834268E-2,-8.660346E-2],"split_indices":[7,22,1,5,5,0,2,0,0,0,0,0,0,0,0],"split_type":[0,0,0,0,0,0,0,0,0,0,0,0,0,0,0],"sum_hessian":[2.2687623E4,2.193068E4,7.569433E2,1.9863875E4,2.0668047E3,1.885208E2,5.684225E2,1.9001344E4,8.6253253E2,3.4999445E2,1.7168103E3,6.608764E1,1.2243315E2,1.9833153E2,3.7009094E2],"tree_param":{"num_deleted":"0","num_feature":"30","num_nodes":"15","size_leaf_vector":"1"}},{"base_weights":[1.6749181E-3,3.736759E-1,-2.231653E-2,-9.65156E-2,4.9774608E-1,-5.224628E-2,3.0575812E-1,-2.4018575E-4,-6.7567624E-2,4.6260368E-2,1.8859407E-1,-3.2589477E-2,-1.5305362E-3,4.2074874E-2,8.7949645E-4],"categories":[],"categories_nodes":[],"categories_segments":[],"categories_sizes":[],"default_left":[0,0,1,0,0,0,1,0,0,0,0,0,0,0,0],"id":54,"left_children":[1,3,5,7,9,11,13,-1,-1,-1,-1,-1,-1,-1,-1],"loss_changes":[2.0198108E2,8.003548E1,2.0877463E2,1.5647511E1,5.206021E1,1.9695264E2,6.0695663E1,0E0,0E0,0E0,0E0,0E0,0E0,0E0,0E0],"parents":[2147483647,0,0,1,1,2,2,3,3,4,4,5,5,6,6],"right_children":[2,4,6,8,10,12,14,-1,-1,-1,-1,-1,-1,-1,-1],"split_conditions":[-2.464E0,7.68E-1,2.211E0,8.64E-1,9.282E1,4.3315E1,-4.547E0,-2.4018575E-4,-6.7567624E-2,4.6260368E-2,1.8859407E-1,-3.2589477E-2,-1.5305362E-3,4.2074874E-2,8.7949645E-4],"split_indices":[24,27,24,17,8,23,6,0,0,0,0,0,0,0,0],"split_type":[0,0,0,0,0,0,0,0,0,0,0,0,0,0,0],"sum_hessian":[2.26294E4,1.3701332E3,2.1259266E4,2.861033E2,1.0840299E3,1.9482729E4,1.7765388E3,2.4697409E2,3.91292E1,1.0585654E3,2.546455E1,2.3163086E3,1.716642E4,1.2803445E3,4.9619424E2],"tree_param":{"num_deleted":"0","num_feature":"30","num_nodes":"15","size_leaf_vector":"1"}},{"base_weights":[-3.4614326E-4,-2.7442154E-1,2.6958955E-2,-3.0828804E-1,1.6804369E-1,6.5549575E-2,-2.3274897E-1,4.2459927E-2,-3.2369476E-2,5.944525E-2,-4.3037487E-3,8.786765E-3,-3.2748464E-2,-2.6195237E-2,2.2364102E-2],"categories":[],"categories_nodes":[],"categories_segments":[],"categories_sizes":[],"default_left":[0,1,0,0,0,1,1,0,0,0,0,0,0,0,0],"id":55,"left_children":[1,3,5,7,9,11,13,-1,-1,-1,-1,-1,-1,-1,-1],"loss_changes":[1.692409E2,3.0753998E1,2.0613214E2,2.163144E1,1.3195462E1,1.5709647E2,3.5522186E1,0E0,0E0,0E0,0E0,0E0,0E0,0E0,0E0],"parents":[2147483647,0,0,1,1,2,2,3,3,4,4,5,5,6,6],"right_children":[2,4,6,8,10,12,14,-1,-1,-1,-1,-1,-1,-1,-1],"split_conditions":[-1.709E0,8.06E-1,1.543E0,-3.42E0,2.35688E2,1.65958E2,2.864E0,4.2459927E-2,-3.2369476E-2,5.944525E-2,-4.3037487E-3,8.786765E-3,-3.2748464E-2,-2.6195237E-2,2.2364102E-2],"split_indices":[14,12,14,24,21,0,24,0,0,0,0,0,0,0,0],"split_type":[0,0,0,0,0,0,0,0,0,0,0,0,0,0,0],"sum_hessian":[2.2612748E4,2.047897E3,2.0564852E4,1.9025762E3,1.4532082E2,1.7905045E4,2.6598054E3,3.8625473E1,1.8639507E3,4.7516224E1,9.7804596E1,1.694369E4,9.6135516E2,2.500246E3,1.5955933E2],"tree_param":{"num_deleted":"0","num_feature":"30","num_nodes":"15","size_leaf_vector":"1"}},{"base_weights":[-7.7181665E-4,3.2035246E-2,-2.6397344E-1,-1.6264911E-1,8.768255E-2,-6.493959E-1,-2.0694576E-1,-1.1272915E-2,-4.8848525E-2,-4.3403238E-2,1.04859695E-2,-1.6651316E-2,-8.026668E-2,-4.9134564E-2,-1.5873626E-2],"categories":[],"categories_nodes":[],"categories_segments":[],"categories_sizes":[],"default_left":[0,0,0,0,0,0,0,0,0,0,0,0,0,0,0],"id":56,"left_children":[1,3,5,7,9,11,13,-1,-1,-1,-1,-1,-1,-1,-1],"loss_changes":[1.9520573E2,2.1778345E2,5.4936523E1,7.2631996E1,1.4014572E2,2.3733063E1,2.9867119E1,0E0,0E0,0E0,0E0,0E0,0E0,0E0,0E0],"parents":[2147483647,0,0,1,1,2,2,3,3,4,4,5,5,6,6],"right_children":[2,4,6,8,10,12,14,-1,-1,-1,-1,-1,-1,-1,-1],"split_conditions":[1.638E0,-1.19E0,2.44E-1,-8.1E-2,7.3544E1,2.493E1,2.11E-1,-1.1272915E-2,-4.8848525E-2,-4.3403238E-2,1.04859695E-2,-1.6651316E-2,-8.026668E-2,-4.9134564E-2,-1.5873626E-2],"split_indices":[17,17,14,14,0,1,12,0,0,0,0,0,0,0,0],"split_type":[0,0,0,0,0,0,0,0,0,0,0,0,0,0,0],"sum_hessian":[2.2604693E4,2.0100164E4,2.5045293E3,4.467725E3,1.5632439E4,3.214716E2,2.1830576E3,3.875346E3,5.923792E2,4.9750928E2,1.5134931E4,7.795601E1,2.4351558E2,3.1508725E2,1.8679705E3],"tree_param":{"num_deleted":"0","num_feature":"30","num_nodes":"15","size_leaf_vector":"1"}},{"base_weights":[-1.7181955E-3,-1.4427453E-2,5.638711E-1,-4.535014E-1,2.5766885E-3,7.432198E-1,2.3060314E-2,-7.33758E-2,-8.819859E-4,2.9313588E-3,-2.8270429E-2,4.376202E-2,9.2349015E-2,-3.8995165E-2,3.059772E-2],"categories":[],"categories_nodes":[],"categories_segments":[],"categories_sizes":[],"default_left":[1,0,0,0,0,0,0,0,0,0,0,0,0,0,0],"id":57,"left_children":[1,3,5,7,9,11,13,-1,-1,-1,-1,-1,-1,-1,-1],"loss_changes":[1.6188002E2,1.6444241E2,4.7987564E1,1.0233269E2,1.6174962E2,2.0069565E1,1.464218E1,0E0,0E0,0E0,0E0,0E0,0E0,0E0,0E0],"parents":[2147483647,0,0,1,1,2,2,3,3,4,4,5,5,6,6],"right_children":[2,4,6,8,10,12,14,-1,-1,-1,-1,-1,-1,-1,-1],"split_conditions":[8.99715E2,4.3762E1,3E0,8.0883E1,3E0,8.17E-1,7.77E-1,-7.33758E-2,-8.819859E-4,2.9313588E-3,-2.8270429E-2,4.376202E-2,9.2349015E-2,-3.8995165E-2,3.059772E-2],"split_indices":[5,2,22,19,22,12,12,0,0,0,0,0,0,0,0],"split_type":[0,0,0,0,0,0,0,0,0,0,0,0,0,0,0],"sum_hessian":[2.251805E4,2.2024125E4,4.9392575E2,8.201772E2,2.1203947E4,3.706373E2,1.2328846E2,5.02703E2,3.1747418E2,1.9387797E4,1.816152E3,1.3878778E2,2.3184952E2,4.996682E1,7.332164E1],"tree_param":{"num_deleted":"0","num_feature":"30","num_nodes":"15","size_leaf_vector":"1"}},{"base_weights":[-3.8574168E-3,3.2820888E-2,-2.0858383E-1,-2.2504152E-1,7.528177E-2,-5.0749564E-1,-1.5797798E-1,-4.749929E-2,-1.7769292E-2,-2.899429E-2,9.909615E-3,3.5680346E-3,-7.231104E-2,-2.8237775E-2,-3.8429666E-3],"categories":[],"categories_nodes":[],"categories_segments":[],"categories_sizes":[],"default_left":[0,0,0,0,0,0,0,0,0,0,0,0,0,0,0],"id":58,"left_children":[1,3,5,7,9,11,13,-1,-1,-1,-1,-1,-1,-1,-1],"loss_changes":[1.6903546E2,2.090437E2,5.1656876E1,3.1862411E1,1.4260367E2,5.7970238E1,4.3511307E1,0E0,0E0,0E0,0E0,0E0,0E0,0E0,0E0],"parents":[2147483647,0,0,1,1,2,2,3,3,4,4,5,5,6,6],"right_children":[2,4,6,8,10,12,14,-1,-1,-1,-1,-1,-1,-1,-1],"split_conditions":[1.364E0,-1.523E0,2.31E-1,4.4657E1,-1.852E0,2.6564E1,1.10724E2,-4.749929E-2,-1.7769292E-2,-2.899429E-2,9.909615E-3,3.5680346E-3,-7.231104E-2,-2.8237775E-2,-3.8429666E-3],"split_indices":[17,14,14,23,17,1,0,0,0,0,0,0,0,0,0],"split_type":[0,0,0,0,0,0,0,0,0,0,0,0,0,0,0],"sum_hessian":[2.2509082E4,1.9089832E4,3.41925E3,2.698387E3,1.6391445E4,4.9375806E2,2.925492E3,4.2831223E2,2.270075E3,1.00269116E3,1.5388754E4,1.4054128E2,3.5321677E2,1.4329884E3,1.4925034E3],"tree_param":{"num_deleted":"0","num_feature":"30","num_nodes":"15","size_leaf_vector":"1"}},{"base_weights":[-1.2295564E-3,-7.348642E-2,1.0385016E-1,-2.8896105E-1,-4.954661E-3,1.256762E-1,-5.1814276E-1,-1.1186038E-2,-4.4042643E-2,1.2450936E-2,-1.5676184E-2,1.7926304E-2,-1.0964583E-2,-8.889761E-2,-3.567614E-2],"categories":[],"categories_nodes":[],"categories_segments":[],"categories_sizes":[],"default_left":[0,0,1,0,1,0,0,0,0,0,0,0,0,0,0],"id":59,"left_children":[1,3,5,7,9,11,13,-1,-1,-1,-1,-1,-1,-1,-1],"loss_changes":[1.7084413E2,1.968825E2,1.2452902E2,8.625198E1,1.9884651E2,1.11722626E2,1.8295105E1,0E0,0E0,0E0,0E0,0E0,0E0,0E0,0E0],"parents":[2147483647,0,0,1,1,2,2,3,3,4,4,5,5,6,6],"right_children":[2,4,6,8,10,12,14,-1,-1,-1,-1,-1,-1,-1,-1],"split_conditions":[9.8E-1,2.591E1,1.85966E2,5.2024E1,-2.388E0,3.5549E1,5.55E-1,-1.1186038E-2,-4.4042643E-2,1.2450936E-2,-1.5676184E-2,1.7926304E-2,-1.0964583E-2,-8.889761E-2,-3.567614E-2],"split_indices":[11,13,0,1,24,8,6,0,0,0,0,0,0,0,0],"split_type":[0,0,0,0,0,0,0,0,0,0,0,0,0,0,0],"sum_hessian":[2.2499006E4,1.3331828E4,9.167178E3,3.216242E3,1.0115586E4,8.857174E3,3.1000467E2,1.4834541E3,1.7327878E3,5.459663E3,4.6559233E3,7.214539E3,1.6426346E3,9.2634415E1,2.1737027E2],"tree_param":{"num_deleted":"0","num_feature":"30","num_nodes":"15","size_leaf_vector":"1"}},{"base_weights":[1.6143705E-3,2.3145148E-1,-2.988525E-2,-3.1800494E-2,3.3602825E-1,-1.5281737E-1,5.6733683E-2,2.4259733E-3,-6.768995E-2,9.011424E-3,4.916827E-2,-3.572096E-2,-4.5517227E-3,2.6356739E-3,5.161466E-2],"categories":[],"categories_nodes":[],"categories_segments":[],"categories_sizes":[],"default_left":[0,0,0,0,0,0,0,0,0,0,0,0,0,0,0],"id":60,"left_children":[1,3,5,7,9,11,13,-1,-1,-1,-1,-1,-1,-1,-1],"loss_changes":[1.6250186E2,7.44915E1,2.1020819E2,2.7866335E1,7.407439E1,1.7894365E2,1.6160962E2,0E0,0E0,0E0,0E0,0E0,0E0,0E0,0E0],"parents":[2147483647,0,0,1,1,2,2,3,3,4,4,5,5,6,6],"right_children":[2,4,6,8,10,12,14,-1,-1,-1,-1,-1,-1,-1,-1],"split_conditions":[-1.737E0,8.44E-1,1.383E0,1.566E0,5.24E-1,1.03793E2,7.0374E1,2.4259733E-3,-6.768995E-2,9.011424E-3,4.916827E-2,-3.572096E-2,-4.5517227E-3,2.6356739E-3,5.161466E-2],"split_indices":[24,12,24,14,11,0,19,0,0,0,0,0,0,0,0],"split_type":[0,0,0,0,0,0,0,0,0,0,0,0,0,0,0],"sum_hessian":[2.244373E4,2.7044382E3,1.9739293E4,7.690921E2,1.9353461E3,8.1590156E3,1.1580276E4,7.0848584E2,6.060626E1,7.507835E2,1.1845626E3,2.8079402E3,5.351075E3,1.0863056E4,7.172212E2],"tree_param":{"num_deleted":"0","num_feature":"30","num_nodes":"15","size_leaf_vector":"1"}},{"base_weights":[2.4316214E-4,-1.9945271E-2,3.4484443E-1,-5.2935492E-2,1.8811104E-1,1.0631461E-1,5.005297E-1,-4.097211E-2,-2.2413353E-3,-6.340609E-2,2.823895E-2,-4.9527325E-2,1.8810593E-2,1.1130506E-2,7.262587E-2],"categories":[],"categories_nodes":[],"categories_segments":[],"categories_sizes":[],"default_left":[1,0,0,1,0,0,0,0,0,0,0,0,0,0,0],"id":61,"left_children":[1,3,5,7,9,11,13,-1,-1,-1,-1,-1,-1,-1,-1],"loss_changes":[1.554392E2,1.4488104E2,4.5865677E1,1.983885E2,2.241069E2,2.4183857E1,6.563069E1,0E0,0E0,0E0,0E0,0E0,0E0,0E0,0E0],"parents":[2147483647,0,0,1,1,2,2,3,3,4,4,5,5,6,6],"right_children":[2,4,6,8,10,12,14,-1,-1,-1,-1,-1,-1,-1,-1],"split_conditions":[2.537E0,6.7021E1,4.6652E1,7.0431E1,9.0481E1,2.119E0,9.16E-1,-4.097211E-2,-2.2413353E-3,-6.340609E-2,2.823895E-2,-4.9527325E-2,1.8810593E-2,1.1130506E-2,7.262587E-2],"split_indices":[24,19,23,0,0,7,12,0,0,0,0,0,0,0,0],"split_type":[0,0,0,0,0,0,0,0,0,0,0,0,0,0,0],"sum_hessian":[2.234099E4,2.110547E4,1.2355199E3,1.8217568E4,2.8879033E3,4.8860184E2,7.46918E2,1.4346729E3,1.6782895E4,2.9649976E2,2.5914036E3,5.7874027E1,4.307278E2,2.7471674E2,4.7220126E2],"tree_param":{"num_deleted":"0","num_feature":"30","num_nodes":"15","size_leaf_vector":"1"}},{"base_weights":[1.1566383E-3,2.0720389E-2,-3.3580947E-1,4.6119515E-2,-2.2900197E-1,-3.8192979E-1,1.5925157E-1,-1.3974589E-2,8.538554E-3,1.3040559E-2,-3.0293817E-2,-4.0368617E-2,4.033963E-2,-1.4526038E-2,4.1044373E-2],"categories":[],"categories_nodes":[],"categories_segments":[],"categories_sizes":[],"default_left":[0,0,1,0,0,1,1,0,0,0,0,0,0,0,0],"id":62,"left_children":[1,3,5,7,9,11,13,-1,-1,-1,-1,-1,-1,-1,-1],"loss_changes":[1.4686339E2,1.3355954E2,2.7972275E1,1.3949826E2,5.1697845E1,1.927449E1,8.082379E0,0E0,0E0,0E0,0E0,0E0,0E0,0E0,0E0],"parents":[2147483647,0,0,1,1,2,2,3,3,4,4,5,5,6,6],"right_children":[2,4,6,8,10,12,14,-1,-1,-1,-1,-1,-1,-1,-1],"split_conditions":[1.982E0,3E0,1.666E0,4.5238E1,9.7341E1,3.323E0,1.0944E2,-1.3974589E-2,8.538554E-3,1.3040559E-2,-3.0293817E-2,-4.0368617E-2,4.033963E-2,-1.4526038E-2,4.1044373E-2],"split_indices":[17,22,27,23,5,24,0,0,0,0,0,0,0,0,0],"split_type":[0,0,0,0,0,0,0,0,0,0,0,0,0,0,0],"sum_hessian":[2.2275893E4,2.1054441E4,1.221451E3,1.9111443E4,1.9429993E3,1.1175662E3,1.03884964E2,3.3328523E3,1.577859E4,3.3138016E2,1.6116191E3,1.087913E3,2.9653152E1,4.7149227E1,5.6735737E1],"tree_param":{"num_deleted":"0","num_feature":"30","num_nodes":"15","size_leaf_vector":"1"}},{"base_weights":[5.5048605E-3,2.3647012E-2,-3.480811E-1,-3.3992536E-2,1.3352977E-1,-7.391532E-1,-2.3011315E-1,-8.663914E-3,1.9053334E-2,2.1183172E-3,4.4695545E-2,-1.8225584E-2,-8.0097474E-2,7.1940073E-3,-3.6637906E-2],"categories":[],"categories_nodes":[],"categories_segments":[],"categories_sizes":[],"default_left":[0,1,0,0,0,0,1,0,0,0,0,0,0,0,0],"id":63,"left_children":[1,3,5,7,9,11,13,-1,-1,-1,-1,-1,-1,-1,-1],"loss_changes":[1.4271078E2,1.3402985E2,4.99207E1,1.6409637E2,2.5637473E2,8.501358E0,3.4419163E1,0E0,0E0,0E0,0E0,0E0,0E0,0E0,0E0],"parents":[2147483647,0,0,1,1,2,2,3,3,4,4,5,5,6,6],"right_children":[2,4,6,8,10,12,14,-1,-1,-1,-1,-1,-1,-1,-1],"split_conditions":[1.18022E2,1.18917E2,1.17158E2,2.969E0,5.1273E1,1.8084E1,-2.807E0,-8.663914E-3,1.9053334E-2,2.1183172E-3,4.4695545E-2,-1.8225584E-2,-8.0097474E-2,7.1940073E-3,-3.6637906E-2],"split_indices":[2,0,9,7,13,1,24,0,0,0,0,0,0,0,0],"split_type":[0,0,0,0,0,0,0,0,0,0,0,0,0,0,0],"sum_hessian":[2.2244795E4,2.1160027E4,1.0847673E3,1.3879931E4,7.2800967E3,2.501701E2,8.3459717E2,1.1244051E4,2.6358794E3,5.3599165E3,1.9201802E3,2.5391134E1,2.2477896E2,2.5960873E2,5.7498846E2],"tree_param":{"num_deleted":"0","num_feature":"30","num_nodes":"15","size_leaf_vector":"1"}},{"base_weights":[1.3620794E-3,2.9074218E-2,-2.2185764E-1,-3.0519413E-2,1.8883017E-1,-4.368961E-1,6.375419E-2,7.077654E-3,-1.413344E-2,-2.1906016E-2,2.7948394E-2,-7.623222E-2,-3.2882355E-2,2.8226716E-2,-2.5025928E-2],"categories":[],"categories_nodes":[],"categories_segments":[],"categories_sizes":[],"default_left":[0,1,0,1,0,0,0,0,0,0,0,0,0,0,0],"id":64,"left_children":[1,3,5,7,9,11,13,-1,-1,-1,-1,-1,-1,-1,-1],"loss_changes":[1.3752815E2,1.8829333E2,1.5082587E2,1.6170685E2,1.9874777E2,4.901587E1,7.2492516E1,0E0,0E0,0E0,0E0,0E0,0E0,0E0,0E0],"parents":[2147483647,0,0,1,1,2,2,3,3,4,4,5,5,6,6],"right_children":[2,4,6,8,10,12,14,-1,-1,-1,-1,-1,-1,-1,-1],"split_conditions":[1.04655E2,1.2128E2,5.2119E1,-1.389E0,2.6208E1,2.7889E1,1.25175E2,7.077654E-3,-1.413344E-2,-2.1906016E-2,2.7948394E-2,-7.623222E-2,-3.2882355E-2,2.8226716E-2,-2.5025928E-2],"split_indices":[2,0,13,24,13,13,2,0,0,0,0,0,0,0,0],"split_type":[0,0,0,0,0,0,0,0,0,0,0,0,0,0,0],"sum_hessian":[2.2230492E4,1.97762E4,2.4542932E3,1.4403924E4,5.372275E3,1.3998273E3,1.0544661E3,7.525358E3,6.878566E3,9.766211E2,4.395654E3,3.4747205E2,1.0523552E3,6.218438E2,4.326222E2],"tree_param":{"num_deleted":"0","num_feature":"30","num_nodes":"15","size_leaf_vector":"1"}},{"base_weights":[-7.109821E-4,-2.103202E-1,2.7767703E-2,4.3082783E-1,-2.2698018E-1,6.2301848E-2,-1.989053E-1,-5.814984E-3,7.369271E-2,-4.678632E-2,-1.8535977E-2,3.2049336E-2,3.464564E-3,-9.4308155E-3,-3.4193497E-2],"categories":[],"categories_nodes":[],"categories_segments":[],"categories_sizes":[],"default_left":[0,0,0,0,0,0,0,0,0,0,0,0,0,0,0],"id":65,"left_children":[1,3,5,7,9,11,13,-1,-1,-1,-1,-1,-1,-1,-1],"loss_changes":[1.3181279E2,2.8310333E1,1.5218947E2,1.0106848E1,2.5729446E1,1.2045632E2,3.842257E1,0E0,0E0,0E0,0E0,0E0,0E0,0E0,0E0],"parents":[2147483647,0,0,1,1,2,2,3,3,4,4,5,5,6,6],"right_children":[2,4,6,8,10,12,14,-1,-1,-1,-1,-1,-1,-1,-1],"split_conditions":[-1.523E0,-3.09E0,1.543E0,6.8226E1,4.28E-1,-1.581E0,2.1595E1,-5.814984E-3,7.369271E-2,-4.678632E-2,-1.8535977E-2,3.2049336E-2,3.464564E-3,-9.4308155E-3,-3.4193497E-2],"split_indices":[14,27,14,2,12,6,8,0,0,0,0,0,0,0,0],"split_type":[0,0,0,0,0,0,0,0,0,0,0,0,0,0,0],"sum_hessian":[2.2079451E4,2.6402512E3,1.9439201E4,6.623868E1,2.5740125E3,1.6869777E4,2.5694236E3,2.5813301E1,4.0425377E1,3.7771295E2,2.1962996E3,1.6311527E3,1.5238625E4,1.4850619E3,1.0843617E3],"tree_param":{"num_deleted":"0","num_feature":"30","num_nodes":"15","size_leaf_vector":"1"}},{"base_weights":[1.2387283E-3,3.2657743E-1,-1.7797597E-2,1.2768493E-2,4.9009332E-1,-4.465951E-2,2.4251202E-1,1.0598614E-2,-7.463591E-2,1.7621698E-2,7.120616E-2,-7.738126E-3,1.634222E-2,-3.1627906E-3,3.3034414E-2],"categories":[],"categories_nodes":[],"categories_segments":[],"categories_sizes":[],"default_left":[0,0,1,0,0,0,0,0,0,0,0,0,0,0,0],"id":66,"left_children":[1,3,5,7,9,11,13,-1,-1,-1,-1,-1,-1,-1,-1],"loss_changes":[1.3686403E2,6.2676346E1,1.4599405E2,2.976464E1,5.5825577E1,1.2887155E2,4.7035744E1,0E0,0E0,0E0,0E0,0E0,0E0,0E0,0E0],"parents":[2147483647,0,0,1,1,2,2,3,3,4,4,5,5,6,6],"right_children":[2,4,6,8,10,12,14,-1,-1,-1,-1,-1,-1,-1,-1],"split_conditions":[-2.539E0,1.053918E3,2.085E0,1.146E0,1.22346E2,6.7021E1,7.99E-1,1.0598614E-2,-7.463591E-2,1.7621698E-2,7.120616E-2,-7.738126E-3,1.634222E-2,-3.1627906E-3,3.3034414E-2],"split_indices":[24,5,24,17,9,19,12,0,0,0,0,0,0,0,0],"split_type":[0,0,0,0,0,0,0,0,0,0,0,0,0,0,0],"sum_hessian":[2.2096951E4,1.2205798E3,2.0876371E4,4.1850012E2,8.020797E2,1.8924354E4,1.9520166E3,3.734967E2,4.500342E1,3.329966E2,4.690831E2,1.6353347E4,2.5710066E3,4.7380997E2,1.4782067E3],"tree_param":{"num_deleted":"0","num_feature":"30","num_nodes":"15","size_leaf_vector":"1"}},{"base_weights":[-2.9907946E-3,3.2525677E-2,-1.6149098E-1,-1.7193313E-1,6.596613E-2,-2.0904699E-1,5.882809E-1,2.559694E-2,-2.1521451E-2,1.2206901E-2,-9.0774335E-3,-4.5552574E-2,-1.1355718E-2,1.5697722E-1,-6.0997694E-3],"categories":[],"categories_nodes":[],"categories_segments":[],"categories_sizes":[],"default_left":[0,0,0,0,0,0,0,0,0,0,0,0,0,0,0],"id":67,"left_children":[1,3,5,7,9,11,13,-1,-1,-1,-1,-1,-1,-1,-1],"loss_changes":[1.2376735E2,1.22816605E2,1.4362941E2,4.6819084E1,1.3576059E2,8.904265E1,1.5323865E2,0E0,0E0,0E0,0E0,0E0,0E0,0E0,0E0],"parents":[2147483647,0,0,1,1,2,2,3,3,4,4,5,5,6,6],"right_children":[2,4,6,8,10,12,14,-1,-1,-1,-1,-1,-1,-1,-1],"split_conditions":[7.0986E1,-1.474E0,1.39969E2,-1.755E0,1.017E0,2.525E1,3.9231E1,2.559694E-2,-2.1521451E-2,1.2206901E-2,-9.0774335E-3,-4.5552574E-2,-1.1355718E-2,1.5697722E-1,-6.0997694E-3],"split_indices":[1,17,1,27,17,13,29,0,0,0,0,0,0,0,0],"split_type":[0,0,0,0,0,0,0,0,0,0,0,0,0,0,0],"sum_hessian":[2.198408E4,1.796035E4,4.0237317E3,2.5240251E3,1.5436323E4,3.7844175E3,2.3931416E2,2.3139708E2,2.2926282E3,1.1367662E4,4.0686614E3,1.0556914E3,2.728726E3,9.471666E1,1.445975E2],"tree_param":{"num_deleted":"0","num_feature":"30","num_nodes":"15","size_leaf_vector":"1"}},{"base_weights":[-2.8719266E-3,1.8906366E-2,-2.5443017E-1,-3.3850882E-2,1.6425185E-1,-2.0403129E-1,-8.433821E-1,-3.6087748E-2,-9.0215023E-4,7.11262E-2,9.613023E-3,-1.0078521E-2,-4.5902357E-2,-9.392161E-2,-1.765149E-2],"categories":[],"categories_nodes":[],"categories_segments":[],"categories_sizes":[],"default_left":[1,1,0,0,0,0,0,0,0,0,0,0,0,0,0],"id":68,"left_children":[1,3,5,7,9,11,13,-1,-1,-1,-1,-1,-1,-1,-1],"loss_changes":[1.2048485E2,1.5520752E2,5.1839096E1,1.2058301E2,2.0079437E2,4.248342E1,8.641304E0,0E0,0E0,0E0,0E0,0E0,0E0,0E0,0E0],"parents":[2147483647,0,0,1,1,2,2,3,3,4,4,5,5,6,6],"right_children":[2,4,6,8,10,12,14,-1,-1,-1,-1,-1,-1,-1,-1],"split_conditions":[1.56206E2,1.22317E2,2.10638E2,1.115E0,1.773E0,3.203E0,3.13406E2,-3.6087748E-2,-9.0215023E-4,7.11262E-2,9.613023E-3,-1.0078521E-2,-4.5902357E-2,-9.392161E-2,-1.765149E-2],"split_indices":[0,0,29,7,7,7,0,0,0,0,0,0,0,0,0],"split_type":[0,0,0,0,0,0,0,0,0,0,0,0,0,0,0],"sum_hessian":[2.199039E4,2.0239143E4,1.7512496E3,1.4849767E4,5.389375E3,1.614442E3,1.368076E2,1.0469467E3,1.380282E4,5.957907E2,4.793584E3,1.1501449E3,4.642971E2,1.19260544E2,1.754706E1],"tree_param":{"num_deleted":"0","num_feature":"30","num_nodes":"15","size_leaf_vector":"1"}},{"base_weights":[6.0212234E-4,-5.501767E-2,8.849317E-2,-5.143669E-1,-2.8428918E-2,2.0294721E-1,-6.37767E-2,-5.9764948E-2,2.0483268E-2,6.228965E-3,-1.5247471E-2,-2.248278E-2,3.014679E-2,2.2144658E-2,-1.2554358E-2],"categories":[],"categories_nodes":[],"categories_segments":[],"categories_sizes":[],"default_left":[0,0,0,1,0,0,0,0,0,0,0,0,0,0,0],"id":69,"left_children":[1,3,5,7,9,11,13,-1,-1,-1,-1,-1,-1,-1,-1],"loss_changes":[1.0710277E2,1.6386609E2,1.479975E2,4.4094025E1,1.4275533E2,2.0437668E2,6.423323E1,0E0,0E0,0E0,0E0,0E0,0E0,0E0,0E0],"parents":[2147483647,0,0,1,1,2,2,3,3,4,4,5,5,6,6],"right_children":[2,4,6,8,10,12,14,-1,-1,-1,-1,-1,-1,-1,-1],"split_conditions":[1.047E0,4.9095E1,2.625E0,9.3536E1,1.316E0,9.1519E1,9.7087E1,-5.9764948E-2,2.0483268E-2,6.228965E-3,-1.5247471E-2,-2.248278E-2,3.014679E-2,2.2144658E-2,-1.2554358E-2],"split_indices":[11,2,7,0,10,0,0,0,0,0,0,0,0,0,0],"split_type":[0,0,0,0,0,0,0,0,0,0,0,0,0,0,0],"sum_hessian":[2.1907213E4,1.3416971E4,8.490242E3,7.331238E2,1.2683848E4,4.8467993E3,3.6434426E3,6.5719086E2,7.593296E1,7.3263535E3,5.3574937E3,9.070634E2,3.939736E3,6.481002E2,2.9953423E3],"tree_param":{"num_deleted":"0","num_feature":"30","num_nodes":"15","size_leaf_vector":"1"}},{"base_weights":[2.0582604E-3,3.082984E-1,-1.6585749E-2,2.5928685E-2,4.432992E-1,-3.516522E-2,2.8407085E-1,1.4437546E-2,-4.8725903E-2,4.0343795E-2,1.612159E-1,-5.7380074E-3,2.2615947E-2,2.5164321E-2,1.05834536E-1],"categories":[],"categories_nodes":[],"categories_segments":[],"categories_sizes":[],"default_left":[0,0,1,0,0,0,0,0,0,0,0,0,0,0,0],"id":70,"left_children":[1,3,5,7,9,11,13,-1,-1,-1,-1,-1,-1,-1,-1],"loss_changes":[1.24317795E2,4.7620308E1,1.1465941E2,2.4702156E1,3.8733627E1,1.1223299E2,2.9728027E1,0E0,0E0,0E0,0E0,0E0,0E0,0E0,0E0],"parents":[2147483647,0,0,1,1,2,2,3,3,4,4,5,5,6,6],"right_children":[2,4,6,8,10,12,14,-1,-1,-1,-1,-1,-1,-1,-1],"split_conditions":[-2.5E0,2.307E0,2.537E0,6.17E-1,7.4068E1,8.5727E1,7.8955E1,1.4437546E-2,-4.8725903E-2,4.0343795E-2,1.612159E-1,-5.7380074E-3,2.2615947E-2,2.5164321E-2,1.05834536E-1],"split_indices":[24,27,24,17,8,19,8,0,0,0,0,0,0,0,0],"split_type":[0,0,0,0,0,0,0,0,0,0,0,0,0,0,0],"sum_hessian":[2.1771787E4,1.2485181E3,2.052327E4,4.0422556E2,8.442925E2,1.9329652E4,1.1936183E3,3.2900735E2,7.521818E1,8.177502E2,2.6542313E1,1.7815924E4,1.5137268E3,1.1469093E3,4.670909E1],"tree_param":{"num_deleted":"0","num_feature":"30","num_nodes":"15","size_leaf_vector":"1"}},{"base_weights":[-2.4332749E-3,-2.691003E-1,1.9215105E-2,-2.0680782E-1,-6.575115E-1,5.7690438E-2,-1.3919052E-1,-2.4939131E-2,3.1715278E-2,1.5409931E-2,-8.979278E-2,9.384532E-3,-1.2263565E-2,-4.236305E-2,-9.577169E-3],"categories":[],"categories_nodes":[],"categories_segments":[],"categories_sizes":[],"default_left":[0,0,0,0,0,0,0,0,0,0,0,0,0,0,0],"id":71,"left_children":[1,3,5,7,9,11,13,-1,-1,-1,-1,-1,-1,-1,-1],"loss_changes":[1.25701706E2,3.9421738E1,1.22752846E2,3.1548882E1,4.4140892E1,1.0565957E2,4.8569916E1,0E0,0E0,0E0,0E0,0E0,0E0,0E0,0E0],"parents":[2147483647,0,0,1,1,2,2,3,3,4,4,5,5,6,6],"right_children":[2,4,6,8,10,12,14,-1,-1,-1,-1,-1,-1,-1,-1],"split_conditions":[-1.852E0,-3.72E-1,1.217E0,6.5264E1,2.493E1,1.50986E2,1.27E-1,-2.4939131E-2,3.1715278E-2,1.5409931E-2,-8.979278E-2,9.384532E-3,-1.2263565E-2,-4.236305E-2,-9.577169E-3],"split_indices":[17,14,17,13,1,0,14,0,0,0,0,0,0,0,0],"split_type":[0,0,0,0,0,0,0,0,0,0,0,0,0,0,0],"sum_hessian":[2.1772518E4,1.6339476E3,2.0138568E4,1.4094377E3,2.2450993E2,1.6203514E4,3.935055E3,1.3039839E3,1.0545376E2,5.1388577E1,1.7312135E2,1.3497735E4,2.7057788E3,5.199655E2,3.4150896E3],"tree_param":{"num_deleted":"0","num_feature":"30","num_nodes":"15","size_leaf_vector":"1"}},{"base_weights":[3.3036788E-4,-1.8804878E-1,2.9372929E-2,1.3752493E-1,-4.246855E-1,-1.8335505E-1,5.981536E-2,2.9982652E-3,5.478084E-2,-6.2866054E-2,-3.347599E-2,-2.151039E-2,3.0379256E-2,1.5639078E-2,-1.2689331E-3],"categories":[],"categories_nodes":[],"categories_segments":[],"categories_sizes":[],"default_left":[0,0,0,0,0,0,0,0,0,0,0,0,0,0,0],"id":72,"left_children":[1,3,5,7,9,11,13,-1,-1,-1,-1,-1,-1,-1,-1],"loss_changes":[1.19105156E2,2.2409882E2,1.22161804E2,5.4022827E1,3.0683197E1,3.659075E1,1.1554906E2,0E0,0E0,0E0,0E0,0E0,0E0,0E0,0E0],"parents":[2147483647,0,0,1,1,2,2,3,3,4,4,5,5,6,6],"right_children":[2,4,6,8,10,12,14,-1,-1,-1,-1,-1,-1,-1,-1],"split_conditions":[3.11E-1,1.0502E2,4.0211E1,9.9186E1,3.1575E1,3.25E0,3.079E1,2.9982652E-3,5.478084E-2,-6.2866054E-2,-3.347599E-2,-2.151039E-2,3.0379256E-2,1.5639078E-2,-1.2689331E-3],"split_indices":[12,5,23,23,19,24,1,0,0,0,0,0,0,0,0],"split_type":[0,0,0,0,0,0,0,0,0,0,0,0,0,0,0],"sum_hessian":[2.176821E4,2.9070032E3,1.8861209E4,1.2237461E3,1.6832571E3,2.3606003E3,1.6500607E4,9.7044824E2,2.5329791E2,5.131978E2,1.1700592E3,2.2166904E3,1.4390984E2,7.075271E3,9.425337E3],"tree_param":{"num_deleted":"0","num_feature":"30","num_nodes":"15","size_leaf_vector":"1"}},{"base_weights":[-1.8663586E-3,-9.467179E-3,5.900114E-1,5.071649E-3,-3.070134E-1,7.749113E-1,-1.362903E-1,2.7621035E-3,-2.1869548E-2,6.6836216E-3,-4.5110814E-2,-3.736229E-2,8.176577E-2,-6.1286867E-2,3.5180315E-2],"categories":[],"categories_nodes":[],"categories_segments":[],"categories_sizes":[],"default_left":[1,0,0,0,0,0,0,0,0,0,0,0,0,0,0],"id":73,"left_children":[1,3,5,7,9,11,13,-1,-1,-1,-1,-1,-1,-1,-1],"loss_changes":[9.762769E1,9.268834E1,3.7056175E1,1.03084366E2,5.3800453E1,1.1080292E1,1.3400966E1,0E0,0E0,0E0,0E0,0E0,0E0,0E0,0E0],"parents":[2147483647,0,0,1,1,2,2,3,3,4,4,5,5,6,6],